{"learner":{"attributes":{"scikit_learn":"{\"_estimator_type\": \"regressor\"}"},"feature_names":[],"feature_types":[],"gradient_booster":{"model":{"cats":{"enc":[],"feature_segments":[],"sorted_idx":[]},"gbtree_model_param":{"num_parallel_tree":"1","num_trees":"100"},"iteration_indptr":[0,1,2,3,4,5,6,7,8,9,10,11,12,13,14,15,16,17,18,19,20,21,22,23,24,25,26,27,28,29,30,31,32,33,34,35,36,37,38,39,40,41,42,43,44,45,46,47,48,49,50,51,52,53,54,55,56,57,58,59,60,61,62,63,64,65,66,67,68,69,70,71,72,73,74,75,76,77,78,79,80,81,82,83,84,85,86,87,88,89,90,91,92,93,94,95,96,97,98,99,100],"tree_info":[0,0,0,0,0,0,0,0,0,0,0,0,0,0,0,0,0,0,0,0,0,0,0,0,0,0,0,0,0,0,0,0,0,0,0,0,0,0,0,0,0,0,0,0,0,0,0,0,0,0,0,0,0,0,0,0,0,0,0,0,0,0,0,0,0,0,0,0,0,0,0,0,0,0,0,0,0,0,0,0,0,0,0,0,0,0,0,0,0,0,0,0,0,0,0,0,0,0,0,0],"trees":[{"base_weights":[-9.813032E-8,-8.1208616E-1,6.514214E-1,-1.4639109E0,-3.8576418E-1,6.1938472E-2,1.1434256E0,-1.7774634E0,-9.751719E-1,-7.518318E-1,-3.7859228E-2,-3.3253977E-1,3.376603E-1,6.365383E-1,1.5105401E0,-6.0511065E-1,-1.5275413E0,-1.240059E0,-6.982471E-1,-9.4444E-1,-3.1661347E-1,-3.23827E-1,2.9708552E-1,-5.7798123E-1,-2.903671E-2,-5.463521E-2,5.2852285E-1,4.573726E-1,1.2385796E0,1.0840169E0,1.777956E0,-1.821732E0,-1.1682887E0,-1.258043E0,-9.429031E-2,-7.7987134E-1,-1.4654328E-1,-1.1243997E0,-7.598011E-1,-6.237855E-1,2.2152773E-1,-3.7300023E-1,8.368495E-2,3.569623E-1,-2.9306086E-2,-7.293601E-1,-2.9711762E-1,4.1528958E-1,-7.886841E-2,-1.9651347E-1,4.6625257E-1,2.9573575E-1,6.960075E-1,2.7909687E-1,7.011624E-1,1.300383E0,8.084669E-2,7.8817147E-1,1.2624811E0,1.4206982E0,5.970624E-1,-5.5554265E-1,-1.4693819E-1,-5.0362412E-2,-3.5973707E-1,-1.00274995E-1,-3.827724E-1,-1.5277785E-1,-2.6391858E-1,-8.27182E-2,-1.9668303E-2,-3.9972422E-1,-2.1469398E-1,-2.7045166E-1,-1.3451077E-1,-1.3496925E-1,-2.9415974E-1,-9.666365E-2,1.1153752E-1,3.829129E-2,-1.2188534E-1,-1.9611966E-2,8.590529E-2,6.374688E-2,1.437487E-1,1.666104E-1,-9.539396E-2,-2.4274713E-1,-8.153376E-2,-1.6775876E-1,4.7389893E-3,1.835673E-1,-5.566739E-2,-1.7389877E-1,-8.426048E-3,-1.1176265E-1,3.651113E-2,8.128011E-2,2.6903751E-1,3.8985427E-2,1.464538E-1,1.3598172E-1,2.678401E-1,1.0543586E-1,-7.0544615E-2,1.4438477E-1,2.7568987E-1,1.8606883E-1,4.0786782E-1,2.5269908E-1,1.1405611E-2,3.9288405E-1,6.396704E-2,4.3428028E-1,4.361762E-2],"categories":[],"categories_nodes":[],"categories_segments":[],"categories_sizes":[],"default_left":[0,0,0,0,0,0,0,0,0,0,0,0,0,0,0,0,0,0,0,0,0,0,0,0,0,0,0,0,0,0,0,0,0,0,0,0,0,0,0,0,0,0,0,0,0,0,0,0,0,0,0,0,0,0,0,0,0,0,0,0,0,0,0,0,0,0,0,0,0,0,0,0,0,0,0,0,0,0,0,0,0,0,0,0,0,0,0,0,0,0,0,0,0,0,0,0,0,0,0,0,0,0,0,0,0,0,0,0,0,0,0,0,0,0,0],"id":0,"left_children":[1,3,5,7,9,11,13,15,17,19,21,23,25,27,29,-1,31,33,35,37,39,41,43,45,47,49,51,53,55,57,59,61,63,65,-1,67,69,71,73,75,77,79,81,83,85,87,89,91,93,95,97,99,101,103,105,107,-1,109,111,113,-1,-1,-1,-1,-1,-1,-1,-1,-1,-1,-1,-1,-1,-1,-1,-1,-1,-1,-1,-1,-1,-1,-1,-1,-1,-1,-1,-1,-1,-1,-1,-1,-1,-1,-1,-1,-1,-1,-1,-1,-1,-1,-1,-1,-1,-1,-1,-1,-1,-1,-1,-1,-1,-1,-1],"loss_changes":[5.3006836E2,1.23372986E2,1.6118478E2,2.5237823E1,3.448522E1,2.7738916E1,5.5422424E1,3.2655945E0,4.3422546E0,1.076609E1,1.3505882E1,7.804901E0,1.1260052E1,1.3348114E1,1.803302E1,0E0,3.790268E0,1.8730545E-1,1.5519142E0,2.1693878E0,7.0808673E0,1.5541539E0,1.2807736E0,2.2492695E0,1.095547E0,3.7867575E0,3.7319832E0,4.1939526E0,1.3864594E0,2.700798E0,5.210327E0,2.5473785E-1,6.62426E-1,1.3464737E-1,0E0,4.167118E-1,4.469274E-2,2.7876282E0,1.7140942E0,1.233779E0,1.4270681E0,1.1849642E0,2.906009E-1,8.691845E-1,2.0331767E0,1.1310921E0,1.81301E0,7.041786E-1,1.1026884E0,2.2859538E0,6.820457E-1,1.340342E0,2.3658905E0,2.3151684E0,1.5691261E0,2.4348068E-1,0E0,1.1461678E0,1.7978287E0,1.2648239E0,0E0,0E0,0E0,0E0,0E0,0E0,0E0,0E0,0E0,0E0,0E0,0E0,0E0,0E0,0E0,0E0,0E0,0E0,0E0,0E0,0E0,0E0,0E0,0E0,0E0,0E0,0E0,0E0,0E0,0E0,0E0,0E0,0E0,0E0,0E0,0E0,0E0,0E0,0E0,0E0,0E0,0E0,0E0,0E0,0E0,0E0,0E0,0E0,0E0,0E0,0E0,0E0,0E0,0E0,0E0],"parents":[2147483647,0,0,1,1,2,2,3,3,4,4,5,5,6,6,7,7,8,8,9,9,10,10,11,11,12,12,13,13,14,14,16,16,17,17,18,18,19,19,20,20,21,21,22,22,23,23,24,24,25,25,26,26,27,27,28,28,29,29,30,30,31,31,32,32,33,33,35,35,36,36,37,37,38,38,39,39,40,40,41,41,42,42,43,43,44,44,45,45,46,46,47,47,48,48,49,49,50,50,51,51,52,52,53,53,54,54,55,55,57,57,58,58,59,59],"right_children":[2,4,6,8,10,12,14,16,18,20,22,24,26,28,30,-1,32,34,36,38,40,42,44,46,48,50,52,54,56,58,60,62,64,66,-1,68,70,72,74,76,78,80,82,84,86,88,90,92,94,96,98,100,102,104,106,108,-1,110,112,114,-1,-1,-1,-1,-1,-1,-1,-1,-1,-1,-1,-1,-1,-1,-1,-1,-1,-1,-1,-1,-1,-1,-1,-1,-1,-1,-1,-1,-1,-1,-1,-1,-1,-1,-1,-1,-1,-1,-1,-1,-1,-1,-1,-1,-1,-1,-1,-1,-1,-1,-1,-1,-1,-1,-1],"split_conditions":[4.51639E0,3.7127092E0,4.2073655E0,2.5990498E0,2.3556592E0,6.5673666E0,6.7619576E0,1.4122354E0,1.6080805E0,8.165995E0,7.3492584E0,2.2726104E0,1.2056688E0,8.589806E0,6.2478385E0,-6.0511065E-1,1.688336E0,4.4730277E0,4.21357E0,5.6895547E0,1.4643626E0,9.381812E0,7.4066358E0,6.032454E0,6.8010235E-1,8.70527E0,7.770493E0,5.8242264E0,9.553347E0,8.343248E0,8.139703E0,8.727303E0,1.8643826E0,2.6366976E-1,-9.429031E-2,3.1521673E0,3.7253327E0,6.4950895E0,6.417344E0,9.668455E0,3.7975152E0,3.9391834E-1,4.0465374E0,4.57929E0,4.3776507E0,7.7122483E0,7.8578496E-1,8.093612E0,4.7157617E0,6.503257E0,8.68905E0,4.2819963E0,2.6568556E0,8.295658E0,6.9963956E0,4.769001E0,8.084669E-2,8.28709E0,9.656321E0,8.1025915E0,5.970624E-1,-5.5554265E-1,-1.4693819E-1,-5.0362412E-2,-3.5973707E-1,-1.00274995E-1,-3.827724E-1,-1.5277785E-1,-2.6391858E-1,-8.27182E-2,-1.9668303E-2,-3.9972422E-1,-2.1469398E-1,-2.7045166E-1,-1.3451077E-1,-1.3496925E-1,-2.9415974E-1,-9.666365E-2,1.1153752E-1,3.829129E-2,-1.2188534E-1,-1.9611966E-2,8.590529E-2,6.374688E-2,1.437487E-1,1.666104E-1,-9.539396E-2,-2.4274713E-1,-8.153376E-2,-1.6775876E-1,4.7389893E-3,1.835673E-1,-5.566739E-2,-1.7389877E-1,-8.426048E-3,-1.1176265E-1,3.651113E-2,8.128011E-2,2.6903751E-1,3.8985427E-2,1.464538E-1,1.3598172E-1,2.678401E-1,1.0543586E-1,-7.0544615E-2,1.4438477E-1,2.7568987E-1,1.8606883E-1,4.0786782E-1,2.5269908E-1,1.1405611E-2,3.9288405E-1,6.396704E-2,4.3428028E-1,4.361762E-2],"split_indices":[0,1,1,0,0,0,0,0,1,1,1,1,1,1,1,0,1,0,0,1,0,4,7,0,4,0,0,0,5,0,0,2,1,3,0,3,2,5,3,1,5,7,2,3,6,7,1,6,0,7,4,4,1,5,1,0,0,7,2,0,0,0,0,0,0,0,0,0,0,0,0,0,0,0,0,0,0,0,0,0,0,0,0,0,0,0,0,0,0,0,0,0,0,0,0,0,0,0,0,0,0,0,0,0,0,0,0,0,0,0,0,0,0,0,0],"split_type":[0,0,0,0,0,0,0,0,0,0,0,0,0,0,0,0,0,0,0,0,0,0,0,0,0,0,0,0,0,0,0,0,0,0,0,0,0,0,0,0,0,0,0,0,0,0,0,0,0,0,0,0,0,0,0,0,0,0,0,0,0,0,0,0,0,0,0,0,0,0,0,0,0,0,0,0,0,0,0,0,0,0,0,0,0,0,0,0,0,0,0,0,0,0,0,0,0,0,0,0,0,0,0,0,0,0,0,0,0,0,0,0,0,0,0],"sum_hessian":[1E3,4.45E2,5.55E2,1.75E2,2.7E2,2.53E2,3.02E2,1.05E2,7E1,1.31E2,1.39E2,1.04E2,1.49E2,1.28E2,1.74E2,5E1,5.5E1,3.4E1,3.6E1,9E1,4.1E1,7.5E1,6.4E1,5.7E1,4.7E1,4.9E1,1E2,1E2,2.8E1,6.9E1,1.05E2,2.8E1,2.7E1,3.3E1,1E0,3.1E1,5E0,4.3E1,4.7E1,2.6E1,1.5E1,6.7E1,8E0,5.4E1,1E1,3.6E1,2.1E1,4E0,4.3E1,3.9E1,1E1,4.3E1,5.7E1,5.9E1,4.1E1,2.6E1,2E0,2.8E1,4.1E1,4.2E1,6.3E1,2.7E1,1E0,1E0,2.6E1,1E0,3.2E1,1E1,2.1E1,1E0,4E0,2.7E1,1.6E1,3.1E1,1.6E1,1.9E1,7E0,3E0,1.2E1,4E0,6.3E1,5E0,3E0,2.6E1,2.8E1,3E0,7E0,3E1,6E0,1.1E1,1E1,3E0,1E0,3E0,4E1,2.5E1,1.4E1,8E0,2E0,2.4E1,1.9E1,2.7E1,3E1,5.2E1,7E0,2.2E1,1.9E1,3E0,2.3E1,2.6E1,2E0,3.9E1,2E0,4.1E1,1E0],"tree_param":{"num_deleted":"0","num_feature":"8","num_nodes":"115","size_leaf_vector":"1"}},{"base_weights":[-7.3741714E-4,-5.773983E-1,4.6183717E-1,-1.0407269E0,-2.743605E-1,4.4626962E-2,8.100535E-1,-1.3747449E0,-8.0177426E-1,-5.4383296E-1,-2.9351369E-2,-2.3433581E-1,2.4600798E-1,4.5433453E-1,1.0676404E0,-5.4216975E-1,-1.4157468E0,-1.0240289E0,-5.729036E-1,-6.7531025E-1,-2.4516685E-1,-2.349038E-1,2.1401896E-1,-4.129874E-1,-1.4442332E-2,-2.9643747E-1,3.1866455E-1,3.3538306E-1,9.357573E-1,7.486739E-1,1.2448043E0,-1.8276049E-1,-4.110632E-2,-7.9223104E-2,-4.286984E-1,-3.7411729E-1,-7.7133363E-1,-6.886226E-1,-2.8053737E-1,-8.1978214E-1,-5.4064375E-1,-3.5831386E-1,4.7457626E-1,-4.2525563E-1,-1.2579095E-1,1.4620832E-1,3.429944E-1,-5.193165E-1,-2.2398032E-1,4.2595588E-2,-3.6275494E-1,-5.687695E-1,3.9091162E-2,2.0039964E-1,5.645021E-1,1.0002861E-1,4.2819113E-1,9.890069E-1,6.4677335E-2,5.382612E-1,9.246896E-1,1.1050292E0,1.4652791E0,-2.0654852E-2,-2.3871127E-1,-9.738254E-2,-2.3246184E-1,-1.3545199E-1,8.461588E-3,-3.2894915E-1,-1.9070679E-1,-1.6915677E-1,8.603057E-2,-7.359473E-2,-2.1694283E-1,1.6920918E-1,4.095698E-3,-4.0195286E-2,-1.8175317E-1,-7.060445E-2,1.6737044E-2,1.32024875E-2,9.8608606E-2,2.504551E-1,5.619375E-2,-2.1875711E-1,-1.1257557E-1,5.616125E-2,-1.04579546E-1,-6.6548094E-2,4.937188E-2,-2.4442421E-2,-2.131911E-1,-1.7986566E-1,-4.3758884E-2,8.515721E-2,-3.9180446E-2,3.1520415E-2,1.22321576E-1,1.5020804E-1,2.8096423E-1,-1.2410342E-1,8.012889E-2,6.686353E-2,1.5117228E-1,2.0850149E-1,3.4851012E-1,1.7772141E-1,3.3466995E-3,1.6839622E-1,3.0447185E-1,7.945466E-2,3.3757526E-1,4.5007494E-1,1.5213382E-2],"categories":[],"categories_nodes":[],"categories_segments":[],"categories_sizes":[],"default_left":[0,0,0,0,0,0,0,0,0,0,0,0,0,0,0,0,0,0,0,0,0,0,0,0,0,0,0,0,0,0,0,0,0,0,0,0,0,0,0,0,0,0,0,0,0,0,0,0,0,0,0,0,0,0,0,0,0,0,0,0,0,0,0,0,0,0,0,0,0,0,0,0,0,0,0,0,0,0,0,0,0,0,0,0,0,0,0,0,0,0,0,0,0,0,0,0,0,0,0,0,0,0,0,0,0,0,0,0,0,0,0,0,0,0,0],"id":1,"left_children":[1,3,5,7,9,11,13,15,17,19,21,23,25,27,29,31,33,35,37,39,41,43,45,47,49,51,53,55,57,59,61,-1,-1,-1,-1,-1,63,65,67,69,71,73,75,77,79,81,83,85,87,89,91,93,95,97,99,101,103,105,-1,107,109,111,113,-1,-1,-1,-1,-1,-1,-1,-1,-1,-1,-1,-1,-1,-1,-1,-1,-1,-1,-1,-1,-1,-1,-1,-1,-1,-1,-1,-1,-1,-1,-1,-1,-1,-1,-1,-1,-1,-1,-1,-1,-1,-1,-1,-1,-1,-1,-1,-1,-1,-1,-1,-1],"loss_changes":[2.6728207E2,6.233557E1,8.073923E1,1.2945114E1,1.7876328E1,1.4326813E1,2.727835E1,1.6903076E0,4.754425E0,4.8999863E0,7.2039003E0,4.1974587E0,5.927473E0,7.0734673E0,8.957184E0,5.231583E-2,6.601105E-1,1.9687309E0,1.6337624E0,1.2883263E0,3.5089552E0,1.5665541E0,5.2708125E-1,1.0694017E0,9.8893607E-1,1.6669877E0,3.6955624E0,2.2506618E0,7.4549294E-1,1.9096107E0,1.8014984E0,0E0,0E0,0E0,0E0,0E0,4.0745735E-1,9.415283E-1,9.100883E-1,1.3915634E0,1.1027899E0,1.3067012E0,2.3968947E-1,1.3916311E0,1.0276997E0,8.247927E-1,1.5282297E0,8.450804E-1,1.243803E0,1.4234098E0,6.2706727E-1,4.272914E-2,4.1088736E-1,1.736095E0,5.2814484E-1,2.7710295E0,1.053607E0,3.6037445E-1,0E0,9.066496E-1,5.4489326E-1,9.252472E-1,1.9026566E0,0E0,0E0,0E0,0E0,0E0,0E0,0E0,0E0,0E0,0E0,0E0,0E0,0E0,0E0,0E0,0E0,0E0,0E0,0E0,0E0,0E0,0E0,0E0,0E0,0E0,0E0,0E0,0E0,0E0,0E0,0E0,0E0,0E0,0E0,0E0,0E0,0E0,0E0,0E0,0E0,0E0,0E0,0E0,0E0,0E0,0E0,0E0,0E0,0E0,0E0,0E0,0E0],"parents":[2147483647,0,0,1,1,2,2,3,3,4,4,5,5,6,6,7,7,8,8,9,9,10,10,11,11,12,12,13,13,14,14,15,15,16,16,17,17,18,18,19,19,20,20,21,21,22,22,23,23,24,24,25,25,26,26,27,27,28,28,29,29,30,30,36,36,37,37,38,38,39,39,40,40,41,41,42,42,43,43,44,44,45,45,46,46,47,47,48,48,49,49,50,50,51,51,52,52,53,53,54,54,55,55,56,56,57,57,59,59,60,60,61,61,62,62],"right_children":[2,4,6,8,10,12,14,16,18,20,22,24,26,28,30,32,34,36,38,40,42,44,46,48,50,52,54,56,58,60,62,-1,-1,-1,-1,-1,64,66,68,70,72,74,76,78,80,82,84,86,88,90,92,94,96,98,100,102,104,106,-1,108,110,112,114,-1,-1,-1,-1,-1,-1,-1,-1,-1,-1,-1,-1,-1,-1,-1,-1,-1,-1,-1,-1,-1,-1,-1,-1,-1,-1,-1,-1,-1,-1,-1,-1,-1,-1,-1,-1,-1,-1,-1,-1,-1,-1,-1,-1,-1,-1,-1,-1,-1,-1,-1,-1],"split_conditions":[4.51639E0,3.7127092E0,4.2073655E0,1.8181765E0,2.3221269E0,6.596903E0,6.7619576E0,2.4817212E-1,1.6695309E0,8.165995E0,7.3492584E0,2.2726104E0,4.5585158E-1,8.829938E0,6.166503E0,1.4643626E0,9.910695E-2,3.0430758E0,3.5751333E0,4.9587574E0,1.8181765E0,3.2099705E0,5.711992E0,6.032454E0,8.388538E0,6.503257E0,8.771205E0,5.125762E0,9.553347E0,8.455108E0,9.02895E0,-1.8276049E-1,-4.110632E-2,-7.9223104E-2,-4.286984E-1,-3.7411729E-1,5.6213903E-1,2.1526904E0,2.7109625E0,4.9896793E0,9.430758E0,9.725682E0,2.0642128E0,2.7366638E0,8.016426E0,6.4591722E0,6.522811E0,4.110956E0,1.5727321E0,5.3995714E0,3.5162268E0,6.1506977E0,1.21031165E-1,2.8888495E0,9.406793E0,2.0497923E0,5.26094E0,5.5681834E0,6.4677335E-2,8.315184E0,2.9994206E0,2.9299444E-1,9.174858E0,-2.0654852E-2,-2.3871127E-1,-9.738254E-2,-2.3246184E-1,-1.3545199E-1,8.461588E-3,-3.2894915E-1,-1.9070679E-1,-1.6915677E-1,8.603057E-2,-7.359473E-2,-2.1694283E-1,1.6920918E-1,4.095698E-3,-4.0195286E-2,-1.8175317E-1,-7.060445E-2,1.6737044E-2,1.32024875E-2,9.8608606E-2,2.504551E-1,5.619375E-2,-2.1875711E-1,-1.1257557E-1,5.616125E-2,-1.04579546E-1,-6.6548094E-2,4.937188E-2,-2.4442421E-2,-2.131911E-1,-1.7986566E-1,-4.3758884E-2,8.515721E-2,-3.9180446E-2,3.1520415E-2,1.22321576E-1,1.5020804E-1,2.8096423E-1,-1.2410342E-1,8.012889E-2,6.686353E-2,1.5117228E-1,2.0850149E-1,3.4851012E-1,1.7772141E-1,3.3466995E-3,1.6839622E-1,3.0447185E-1,7.945466E-2,3.3757526E-1,4.5007494E-1,1.5213382E-2],"split_indices":[0,1,1,0,0,0,0,6,1,1,1,1,1,1,1,0,4,0,0,3,0,0,4,0,3,7,0,0,5,0,0,0,0,0,0,0,4,0,1,1,4,1,0,2,4,2,4,7,4,0,2,7,1,1,7,6,1,0,0,7,5,7,2,0,0,0,0,0,0,0,0,0,0,0,0,0,0,0,0,0,0,0,0,0,0,0,0,0,0,0,0,0,0,0,0,0,0,0,0,0,0,0,0,0,0,0,0,0,0,0,0,0,0,0,0],"split_type":[0,0,0,0,0,0,0,0,0,0,0,0,0,0,0,0,0,0,0,0,0,0,0,0,0,0,0,0,0,0,0,0,0,0,0,0,0,0,0,0,0,0,0,0,0,0,0,0,0,0,0,0,0,0,0,0,0,0,0,0,0,0,0,0,0,0,0,0,0,0,0,0,0,0,0,0,0,0,0,0,0,0,0,0,0,0,0,0,0,0,0,0,0,0,0,0,0,0,0,0,0,0,0,0,0,0,0,0,0,0,0,0,0,0,0],"sum_hessian":[1E3,4.45E2,5.55E2,1.75E2,2.7E2,2.53E2,3.02E2,7.1E1,1.04E2,1.28E2,1.42E2,1.06E2,1.47E2,1.28E2,1.74E2,4E0,6.7E1,5.1E1,5.3E1,8.8E1,4E1,7.7E1,6.5E1,5.8E1,4.8E1,1.7E1,1.3E2,1.04E2,2.4E1,6.4E1,1.1E2,3E0,1E0,1E0,6.6E1,2.5E1,2.6E1,3.7E1,1.6E1,4E1,4.8E1,3.5E1,5E0,2.7E1,5E1,4.4E1,2.1E1,3.6E1,2.2E1,4.2E1,6E0,9E0,8E0,8.9E1,4.1E1,3E1,7.4E1,2.2E1,2E0,3.1E1,3.3E1,7.1E1,3.9E1,1E0,2.5E1,8E0,2.9E1,1E1,6E0,1.4E1,2.6E1,4.7E1,1E0,2.8E1,7E0,4E0,1E0,1.1E1,1.6E1,3.1E1,1.9E1,2.9E1,1.5E1,4E0,1.7E1,1.3E1,2.3E1,5E0,1.7E1,1.3E1,2.9E1,4E0,2E0,8E0,1E0,3E0,5E0,6.2E1,2.7E1,3.7E1,4E0,7E0,2.3E1,2.1E1,5.3E1,1E1,1.2E1,2.8E1,3E0,8E0,2.5E1,2E0,6.9E1,3.8E1,1E0],"tree_param":{"num_deleted":"0","num_feature":"8","num_nodes":"115","size_leaf_vector":"1"}},{"base_weights":[-8.1054465E-4,-4.1691855E-1,3.2233858E-1,-6.708384E-1,-1.1966728E-1,2.6395207E-2,5.7177323E-1,-7.884577E-1,-3.7473863E-1,-3.12114E-1,6.292219E-2,-1.1130004E-1,2.6927835E-1,2.2135587E-1,7.0774835E-1,-8.9387375E-1,-5.556234E-1,-5.5969644E-1,-2.2665182E-1,-3.9975825E-1,-1.4042857E-1,-6.8003E-2,1.6224946E-1,-3.016095E-1,-7.3233753E-4,-1.9189945E-1,3.3910802E-1,9.971977E-2,4.87965E-1,4.4838196E-1,8.232974E-1,-1.0526606E0,-8.006295E-1,-7.7621925E-1,-4.4521955E-1,-2.98793E-1,-6.5728396E-1,-1.6896887E-1,-2.1106686E-1,-1.2513244E-1,-4.4741508E-1,-3.1957978E-1,1.8733346E-1,-2.0631674E-1,1.0648082E-1,2.1201773E-1,-7.871992E-2,-4.2774877E-1,-2.0213085E-1,-2.2023173E-1,7.7074185E-2,-3.5767087E-1,6.1112363E-2,-8.536302E-4,3.9739937E-1,-1.1147646E-1,2.9459998E-1,7.383606E-1,3.4367418E-1,6.0025734E-1,2.4927187E-1,6.8544984E-1,9.7301453E-1,-1.2461835E-1,-3.2276416E-1,-2.731491E-1,-1.8633257E-1,-2.5367722E-1,5.0058607E-2,3.0097652E-2,-1.43226E-1,-1.9395232E-2,-1.0477417E-1,-1.0502457E-1,-2.3576377E-1,-3.5895854E-2,-2.0639987E-1,-7.186666E-2,7.795429E-2,-1.4930314E-2,-1.4585535E-1,1.7602E-2,-1.2069003E-1,-9.374815E-2,9.19859E-2,-1.5272133E-2,-1.4826359E-1,6.003136E-2,-4.827875E-2,7.616612E-2,-2.0789863E-3,1.7428508E-1,-6.083459E-2,-1.6665582E-2,-1.4786875E-1,5.500722E-2,-7.681404E-2,-1.6192394E-1,-4.334695E-2,3.0307366E-2,-8.9278825E-2,-4.329697E-2,-1.2141987E-1,7.941337E-2,-3.205946E-2,-8.230991E-2,6.1316285E-2,1.04918994E-1,2.3293881E-1,8.314887E-2,-6.0087256E-2,1.3618995E-1,-2.6524009E-3,1.04692094E-1,2.6246756E-1,3.5238065E-2,1.3171358E-1,1.1235557E-1,1.9955517E-1,3.1405058E-2,1.6706938E-1,1.5352862E-1,2.393451E-1,2.7143124E-1,4.1664234E-1],"categories":[],"categories_nodes":[],"categories_segments":[],"categories_sizes":[],"default_left":[0,0,0,0,0,0,0,0,0,0,0,0,0,0,0,0,0,0,0,0,0,0,0,0,0,0,0,0,0,0,0,0,0,0,0,0,0,0,0,0,0,0,0,0,0,0,0,0,0,0,0,0,0,0,0,0,0,0,0,0,0,0,0,0,0,0,0,0,0,0,0,0,0,0,0,0,0,0,0,0,0,0,0,0,0,0,0,0,0,0,0,0,0,0,0,0,0,0,0,0,0,0,0,0,0,0,0,0,0,0,0,0,0,0,0,0,0,0,0,0,0,0,0,0,0],"id":2,"left_children":[1,3,5,7,9,11,13,15,17,19,21,23,25,27,29,31,33,35,37,39,41,43,45,47,49,51,53,55,57,59,61,63,65,67,69,71,73,75,-1,77,79,81,83,85,87,89,91,93,95,97,99,101,103,105,107,109,111,113,115,117,119,121,123,-1,-1,-1,-1,-1,-1,-1,-1,-1,-1,-1,-1,-1,-1,-1,-1,-1,-1,-1,-1,-1,-1,-1,-1,-1,-1,-1,-1,-1,-1,-1,-1,-1,-1,-1,-1,-1,-1,-1,-1,-1,-1,-1,-1,-1,-1,-1,-1,-1,-1,-1,-1,-1,-1,-1,-1,-1,-1,-1,-1,-1,-1],"loss_changes":[1.3473378E2,3.2979088E1,4.1618553E1,7.9237213E0,7.1528044E0,8.691929E0,1.4423645E1,3.6268082E0,1.7630405E0,1.4335384E0,1.3764998E0,3.4927638E0,3.0922413E0,2.7726893E0,6.2241516E0,8.450928E-1,9.9391747E-1,5.674362E-1,9.8149085E-1,7.947216E-1,2.1150317E0,1.1321102E0,7.362479E-1,6.7897654E-1,1.8272934E0,5.6710577E-1,1.6253176E0,2.543477E0,7.217488E-1,1.9671679E0,2.4494019E0,1.3018036E-1,9.3346786E-1,1.2532864E0,7.3300123E-1,9.5555484E-2,5.5447674E-1,8.647505E-1,0E0,5.468046E-1,8.2371426E-1,7.4325633E-1,8.709094E-1,1.1381248E0,5.579568E-1,4.60119E-1,1.0180466E0,6.030545E-1,7.951709E-1,5.9963036E-1,7.3897004E-1,2.1912217E-2,2.3348816E-1,7.858462E-1,9.9332905E-1,1.091016E0,1.5514815E0,1.7315626E-1,3.5834074E-1,3.224764E-1,1.3650342E0,1.1920853E0,7.2972107E-1,0E0,0E0,0E0,0E0,0E0,0E0,0E0,0E0,0E0,0E0,0E0,0E0,0E0,0E0,0E0,0E0,0E0,0E0,0E0,0E0,0E0,0E0,0E0,0E0,0E0,0E0,0E0,0E0,0E0,0E0,0E0,0E0,0E0,0E0,0E0,0E0,0E0,0E0,0E0,0E0,0E0,0E0,0E0,0E0,0E0,0E0,0E0,0E0,0E0,0E0,0E0,0E0,0E0,0E0,0E0,0E0,0E0,0E0,0E0,0E0,0E0,0E0],"parents":[2147483647,0,0,1,1,2,2,3,3,4,4,5,5,6,6,7,7,8,8,9,9,10,10,11,11,12,12,13,13,14,14,15,15,16,16,17,17,18,18,19,19,20,20,21,21,22,22,23,23,24,24,25,25,26,26,27,27,28,28,29,29,30,30,31,31,32,32,33,33,34,34,35,35,36,36,37,37,39,39,40,40,41,41,42,42,43,43,44,44,45,45,46,46,47,47,48,48,49,49,50,50,51,51,52,52,53,53,54,54,55,55,56,56,57,57,58,58,59,59,60,60,61,61,62,62],"right_children":[2,4,6,8,10,12,14,16,18,20,22,24,26,28,30,32,34,36,38,40,42,44,46,48,50,52,54,56,58,60,62,64,66,68,70,72,74,76,-1,78,80,82,84,86,88,90,92,94,96,98,100,102,104,106,108,110,112,114,116,118,120,122,124,-1,-1,-1,-1,-1,-1,-1,-1,-1,-1,-1,-1,-1,-1,-1,-1,-1,-1,-1,-1,-1,-1,-1,-1,-1,-1,-1,-1,-1,-1,-1,-1,-1,-1,-1,-1,-1,-1,-1,-1,-1,-1,-1,-1,-1,-1,-1,-1,-1,-1,-1,-1,-1,-1,-1,-1,-1,-1,-1,-1,-1,-1],"split_conditions":[4.4730277E0,5.26094E0,4.2073655E0,3.0430758E0,2.3556592E0,7.671883E0,5.948474E0,3.4519222E0,2.1120825E0,8.682713E0,7.511771E0,1.2886987E0,4.5585158E-1,8.194957E0,5.773534E0,9.944139E-1,1.184617E0,4.1656585E0,9.132297E0,1.7182946E0,1.4730304E0,7.0664253E0,7.4066358E0,6.032454E0,5.5270705E0,6.503257E0,1.1476887E0,4.8726535E0,1.8089191E0,5.314549E0,8.191889E0,5.6213903E-1,1.8065754E0,8.264647E0,1.2771349E0,1.8712428E0,3.469532E0,9.672712E0,-2.1106686E-1,5.9614263E0,4.1497326E-1,2.4685702E0,2.2267609E0,4.1130395E0,7.624587E0,9.620585E0,7.5746903E0,4.9286456E0,1.0184727E0,8.2272327E-1,9.368298E0,2.3271936E-1,1.21031165E-1,8.455108E0,9.447074E0,2.4165893E0,6.5845184E0,6.6166725E0,8.589806E0,7.457338E0,8.646589E0,3.3561046E0,8.419335E0,-1.2461835E-1,-3.2276416E-1,-2.731491E-1,-1.8633257E-1,-2.5367722E-1,5.0058607E-2,3.0097652E-2,-1.43226E-1,-1.9395232E-2,-1.0477417E-1,-1.0502457E-1,-2.3576377E-1,-3.5895854E-2,-2.0639987E-1,-7.186666E-2,7.795429E-2,-1.4930314E-2,-1.4585535E-1,1.7602E-2,-1.2069003E-1,-9.374815E-2,9.19859E-2,-1.5272133E-2,-1.4826359E-1,6.003136E-2,-4.827875E-2,7.616612E-2,-2.0789863E-3,1.7428508E-1,-6.083459E-2,-1.6665582E-2,-1.4786875E-1,5.500722E-2,-7.681404E-2,-1.6192394E-1,-4.334695E-2,3.0307366E-2,-8.9278825E-2,-4.329697E-2,-1.2141987E-1,7.941337E-2,-3.205946E-2,-8.230991E-2,6.1316285E-2,1.04918994E-1,2.3293881E-1,8.314887E-2,-6.0087256E-2,1.3618995E-1,-2.6524009E-3,1.04692094E-1,2.6246756E-1,3.5238065E-2,1.3171358E-1,1.1235557E-1,1.9955517E-1,3.1405058E-2,1.6706938E-1,1.5352862E-1,2.393451E-1,2.7143124E-1,4.1664234E-1],"split_indices":[0,1,1,0,0,0,0,1,1,1,1,1,1,1,1,0,0,7,3,4,0,4,7,0,0,7,3,6,6,2,0,4,1,5,6,5,3,6,0,2,0,4,5,4,6,1,1,0,6,6,3,1,1,0,7,5,3,7,1,0,0,2,3,0,0,0,0,0,0,0,0,0,0,0,0,0,0,0,0,0,0,0,0,0,0,0,0,0,0,0,0,0,0,0,0,0,0,0,0,0,0,0,0,0,0,0,0,0,0,0,0,0,0,0,0,0,0,0,0,0,0,0,0,0,0],"split_type":[0,0,0,0,0,0,0,0,0,0,0,0,0,0,0,0,0,0,0,0,0,0,0,0,0,0,0,0,0,0,0,0,0,0,0,0,0,0,0,0,0,0,0,0,0,0,0,0,0,0,0,0,0,0,0,0,0,0,0,0,0,0,0,0,0,0,0,0,0,0,0,0,0,0,0,0,0,0,0,0,0,0,0,0,0,0,0,0,0,0,0,0,0,0,0,0,0,0,0,0,0,0,0,0,0,0,0,0,0,0,0,0,0,0,0,0,0,0,0,0,0,0,0,0,0],"sum_hessian":[1E3,4.37E2,5.63E2,2.35E2,2.02E2,2.58E2,3.05E2,1.67E2,6.8E1,9.8E1,1.04E2,1.65E2,9.3E1,8.6E1,2.19E2,1.13E2,5.4E1,2.9E1,3.9E1,6.4E1,3.4E1,4.5E1,5.9E1,6E1,1.05E2,1.2E1,8.1E1,6E1,2.6E1,6.9E1,1.5E2,3.8E1,7.5E1,1.6E1,3.8E1,9E0,2E1,3.6E1,3E0,1E1,5.4E1,2.2E1,1.2E1,2.5E1,2E1,4.9E1,1E1,2.5E1,3.5E1,2.7E1,7.8E1,7E0,5E0,1.2E1,6.9E1,2.9E1,3.1E1,8E0,1.8E1,3.8E1,3.1E1,8.1E1,6.9E1,2E0,3.6E1,4.4E1,3.1E1,1.5E1,1E0,2E0,3.6E1,2E0,7E0,7E0,1.3E1,3.4E1,2E0,8E0,2E0,5E0,4.9E1,4E0,1.8E1,2E0,1E1,1.7E1,8E0,1.5E1,5E0,4.1E1,8E0,1E0,9E0,4E0,2.1E1,4E0,3.1E1,4E0,2.3E1,7.4E1,4E0,2E0,5E0,2E0,3E0,5E0,7E0,6.3E1,6E0,5E0,2.4E1,2E1,1.1E1,3E0,5E0,6E0,1.2E1,1E1,2.8E1,2.2E1,9E0,3.4E1,4.7E1,6.2E1,7E0],"tree_param":{"num_deleted":"0","num_feature":"8","num_nodes":"125","size_leaf_vector":"1"}},{"base_weights":[-9.018058E-4,-2.9724416E-1,2.29238E-1,-4.7866285E-1,-8.486953E-2,1.7507233E-2,4.076989E-1,-6.3478184E-1,-3.6707568E-1,-2.9121011E-1,3.7433885E-3,-1.2440762E-1,1.3902348E-1,2.0027804E-1,5.281045E-1,-7.0534027E-1,-3.6218083E-1,-5.5783147E-1,-2.8519505E-1,-3.186408E-1,7.974167E-2,-1.2029331E-1,9.485779E-2,-3.5276356E-1,-6.060065E-2,6.932439E-2,4.0341225E-1,1.3523668E-1,4.992106E-1,3.346488E-1,6.2148833E-1,-2.231362E-1,-7.2903025E-1,-4.6805865E-1,9.141543E-2,-4.2922473E-1,-6.9831645E-1,-2.5605953E-1,-6.9897497E-1,-1.4971426E-1,-3.9916423E-1,1.928308E-1,-5.5892233E-2,-2.2864498E-1,4.4878885E-2,3.2576326E-2,2.0970684E-1,4.3018557E-2,-4.000849E-1,-1.6906638E-1,-1.4200903E-4,4.1496966E-2,5.540261E-1,4.3904698E-1,-8.915402E-2,1.7090967E-1,-1.2574394E-1,2.7000573E-1,6.295133E-1,2.7555263E-1,6.321223E-1,4.7746104E-1,7.125527E-1,-8.018083E-2,-6.9904984E-3,-1.6780838E-1,-2.3917657E-1,-1.7271449E-1,-6.499184E-2,-4.351884E-2,5.604021E-2,-1.5060401E-1,-3.815703E-2,-2.3150297E-1,-7.459109E-2,-1.0402061E-1,-4.5579705E-2,-5.511657E-2,-2.2958437E-1,-9.934541E-3,-1.2487791E-1,-1.0287704E-1,-2.8229964E-1,6.706946E-2,1.5094292E-2,-2.6517572E-2,-1.221608E-1,-3.364482E-2,6.730159E-2,-7.118546E-2,2.7160088E-2,1.0516509E-1,-1.5789727E-2,-1.9356048E-2,-1.2829743E-1,-6.516256E-2,2.75395E-2,2.041506E-2,-4.7416005E-2,-8.5789375E-3,5.5951856E-2,1.9504449E-1,7.2356366E-2,1.6190061E-1,3.6010258E-2,1.0843007E-2,8.136943E-2,3.668557E-2,-1.182462E-1,8.884194E-2,9.1400035E-3,4.8589163E-2,2.1204807E-1,1.1278699E-1,3.780474E-2,8.224267E-2,2.2391377E-1,1.6624759E-1,4.0271286E-2,1.8861833E-1,3.051343E-1],"categories":[],"categories_nodes":[],"categories_segments":[],"categories_sizes":[],"default_left":[0,0,0,0,0,0,0,0,0,0,0,0,0,0,0,0,0,0,0,0,0,0,0,0,0,0,0,0,0,0,0,0,0,0,0,0,0,0,0,0,0,0,0,0,0,0,0,0,0,0,0,0,0,0,0,0,0,0,0,0,0,0,0,0,0,0,0,0,0,0,0,0,0,0,0,0,0,0,0,0,0,0,0,0,0,0,0,0,0,0,0,0,0,0,0,0,0,0,0,0,0,0,0,0,0,0,0,0,0,0,0,0,0,0,0,0,0,0,0,0,0],"id":3,"left_children":[1,3,5,7,9,11,13,15,17,19,21,23,25,27,29,31,33,35,37,39,41,43,45,47,49,51,53,55,57,59,61,63,65,67,69,71,73,75,77,79,81,83,-1,85,87,89,91,-1,93,95,97,99,101,103,-1,105,107,109,111,113,115,117,119,-1,-1,-1,-1,-1,-1,-1,-1,-1,-1,-1,-1,-1,-1,-1,-1,-1,-1,-1,-1,-1,-1,-1,-1,-1,-1,-1,-1,-1,-1,-1,-1,-1,-1,-1,-1,-1,-1,-1,-1,-1,-1,-1,-1,-1,-1,-1,-1,-1,-1,-1,-1,-1,-1,-1,-1,-1,-1],"loss_changes":[6.833651E1,1.683496E1,2.1303976E1,3.8783112E0,3.7128317E0,4.4837403E0,7.5364723E0,1.6102676E0,2.0275974E0,6.4611197E-1,1.6275295E0,1.7271063E0,2.5519056E0,2.1489878E0,3.2786903E0,7.0550156E-1,1.0993547E0,4.4102573E-1,1.0265894E0,7.155843E-1,1.8636212E-1,1.1019588E0,5.868648E-1,6.678221E-1,6.2295663E-1,1.4876659E0,8.544731E-1,9.0593684E-1,4.2734814E-1,9.684863E-1,1.3517151E0,3.7868887E-2,3.8749695E-1,3.6248064E-1,1.3988052E-1,4.6378088E-1,4.0192604E-1,8.4429264E-1,6.43878E-2,6.077949E-1,8.3529043E-1,6.2719434E-3,0E0,8.906075E-1,7.296658E-1,8.8170564E-1,1.0899642E0,0E0,1.9446898E-1,4.4693118E-1,6.783915E-1,1.0929021E0,2.3616195E-2,8.340106E-1,0E0,1.125876E0,8.4708136E-1,4.7318757E-2,3.1929398E-1,7.9341316E-1,2.0440269E-1,1.3208055E0,1.326313E0,0E0,0E0,0E0,0E0,0E0,0E0,0E0,0E0,0E0,0E0,0E0,0E0,0E0,0E0,0E0,0E0,0E0,0E0,0E0,0E0,0E0,0E0,0E0,0E0,0E0,0E0,0E0,0E0,0E0,0E0,0E0,0E0,0E0,0E0,0E0,0E0,0E0,0E0,0E0,0E0,0E0,0E0,0E0,0E0,0E0,0E0,0E0,0E0,0E0,0E0,0E0,0E0,0E0,0E0,0E0,0E0,0E0,0E0],"parents":[2147483647,0,0,1,1,2,2,3,3,4,4,5,5,6,6,7,7,8,8,9,9,10,10,11,11,12,12,13,13,14,14,15,15,16,16,17,17,18,18,19,19,20,20,21,21,22,22,23,23,24,24,25,25,26,26,27,27,28,28,29,29,30,30,31,31,32,32,33,33,34,34,35,35,36,36,37,37,38,38,39,39,40,40,41,41,43,43,44,44,45,45,46,46,48,48,49,49,50,50,51,51,52,52,53,53,55,55,56,56,57,57,58,58,59,59,60,60,61,61,62,62],"right_children":[2,4,6,8,10,12,14,16,18,20,22,24,26,28,30,32,34,36,38,40,42,44,46,48,50,52,54,56,58,60,62,64,66,68,70,72,74,76,78,80,82,84,-1,86,88,90,92,-1,94,96,98,100,102,104,-1,106,108,110,112,114,116,118,120,-1,-1,-1,-1,-1,-1,-1,-1,-1,-1,-1,-1,-1,-1,-1,-1,-1,-1,-1,-1,-1,-1,-1,-1,-1,-1,-1,-1,-1,-1,-1,-1,-1,-1,-1,-1,-1,-1,-1,-1,-1,-1,-1,-1,-1,-1,-1,-1,-1,-1,-1,-1,-1,-1,-1,-1,-1,-1],"split_conditions":[4.4730277E0,5.26094E0,4.2073655E0,1.8181765E0,1.4643626E0,6.7619576E0,6.4829755E0,4.233351E0,1.2305212E0,9.070419E0,7.3492584E0,7.5527084E-1,3.2674255E0,8.947619E0,5.773534E0,2.4817212E-1,1.5167488E0,5.771867E0,9.672712E0,2.606664E0,4.8766318E-1,7.1597223E0,6.4591722E0,1.5004866E0,5.5270705E0,9.447074E0,9.665908E0,8.295658E0,5.125762E0,9.6149235E0,3.6739073E0,1.4643626E0,2.6528509E0,6.4950895E0,1.3065234E0,3.4609973E0,7.803655E0,3.1491845E0,4.869485E-1,7.5454288E0,8.698963E0,8.920744E0,-5.5892233E-2,4.5546556E0,4.2377014E0,1.6874944E0,6.24238E0,4.3018557E-2,4.677206E0,9.223078E0,7.1904593E0,8.5546055E0,1.3824557E0,4.0414033E0,-8.915402E-2,4.308875E0,3.816165E0,5.1167746E0,3.4993784E0,6.169269E0,2.9994206E0,8.099244E0,7.5823846E0,-8.018083E-2,-6.9904984E-3,-1.6780838E-1,-2.3917657E-1,-1.7271449E-1,-6.499184E-2,-4.351884E-2,5.604021E-2,-1.5060401E-1,-3.815703E-2,-2.3150297E-1,-7.459109E-2,-1.0402061E-1,-4.5579705E-2,-5.511657E-2,-2.2958437E-1,-9.934541E-3,-1.2487791E-1,-1.0287704E-1,-2.8229964E-1,6.706946E-2,1.5094292E-2,-2.6517572E-2,-1.221608E-1,-3.364482E-2,6.730159E-2,-7.118546E-2,2.7160088E-2,1.0516509E-1,-1.5789727E-2,-1.9356048E-2,-1.2829743E-1,-6.516256E-2,2.75395E-2,2.041506E-2,-4.7416005E-2,-8.5789375E-3,5.5951856E-2,1.9504449E-1,7.2356366E-2,1.6190061E-1,3.6010258E-2,1.0843007E-2,8.136943E-2,3.668557E-2,-1.182462E-1,8.884194E-2,9.1400035E-3,4.8589163E-2,2.1204807E-1,1.1278699E-1,3.780474E-2,8.224267E-2,2.2391377E-1,1.6624759E-1,4.0271286E-2,1.8861833E-1,3.051343E-1],"split_indices":[0,1,1,0,0,0,0,1,1,6,1,1,1,1,1,6,0,5,6,5,0,4,2,4,0,7,0,5,0,0,6,0,4,5,4,0,2,0,3,7,6,1,0,4,2,6,5,0,0,5,6,0,1,1,0,4,3,0,4,2,5,7,3,0,0,0,0,0,0,0,0,0,0,0,0,0,0,0,0,0,0,0,0,0,0,0,0,0,0,0,0,0,0,0,0,0,0,0,0,0,0,0,0,0,0,0,0,0,0,0,0,0,0,0,0,0,0,0,0,0,0],"split_type":[0,0,0,0,0,0,0,0,0,0,0,0,0,0,0,0,0,0,0,0,0,0,0,0,0,0,0,0,0,0,0,0,0,0,0,0,0,0,0,0,0,0,0,0,0,0,0,0,0,0,0,0,0,0,0,0,0,0,0,0,0,0,0,0,0,0,0,0,0,0,0,0,0,0,0,0,0,0,0,0,0,0,0,0,0,0,0,0,0,0,0,0,0,0,0,0,0,0,0,0,0,0,0,0,0,0,0,0,0,0,0,0,0,0,0,0,0,0,0,0,0],"sum_hessian":[1E3,4.37E2,5.63E2,2.35E2,2.02E2,2.58E2,3.05E2,9.6E1,1.39E2,6E1,1.42E2,1.19E2,1.39E2,1.13E2,1.92E2,7.5E1,2.1E1,4E1,9.9E1,5.6E1,4E0,6E1,8.2E1,2.5E1,9.4E1,1.11E2,2.8E1,9.4E1,1.9E1,6.4E1,1.28E2,4E0,7.1E1,1.7E1,4E0,2.3E1,1.7E1,9.4E1,5E0,1.9E1,3.7E1,3E0,1E0,3.6E1,2.4E1,5.4E1,2.8E1,2E0,2.3E1,3.3E1,6.1E1,1.06E2,5E0,2.7E1,1E0,8.3E1,1.1E1,8E0,1.1E1,5.5E1,9E0,5.2E1,7.6E1,3E0,1E0,2.3E1,4.8E1,1.1E1,6E0,1E0,3E0,1.8E1,5E0,1.4E1,3E0,4.9E1,4.5E1,1E0,4E0,1.4E1,5E0,3.5E1,2E0,2E0,1E0,2.1E1,1.5E1,1.3E1,1.1E1,9E0,4.5E1,1.8E1,1E1,2E0,2.1E1,2.8E1,5E0,4.3E1,1.8E1,7.2E1,3.4E1,3E0,2E0,2E1,7E0,3.6E1,4.7E1,6E0,5E0,7E0,1E0,2E0,9E0,3.2E1,2.3E1,3E0,6E0,4.2E1,1E1,6.2E1,1.4E1],"tree_param":{"num_deleted":"0","num_feature":"8","num_nodes":"121","size_leaf_vector":"1"}},{"base_weights":[-1.0621573E-3,-1.9420609E-1,1.8012908E-1,-3.6645168E-1,-8.488939E-2,-1.4427296E-2,2.8767502E-1,-4.6336684E-1,-2.4094523E-1,-2.691777E-1,-2.3901721E-2,-9.220077E-2,9.832941E-2,2.2473946E-1,5.011769E-1,-3.743759E-1,-5.40481E-1,-2.1473572E-1,-5.4587966E-1,-4.3143767E-1,-1.8266417E-1,-9.132556E-2,7.277862E-2,-2.025366E-1,-2.8741136E-2,5.358038E-2,4.255077E-1,1.4072196E-1,3.7830228E-1,4.1163248E-1,7.824677E-1,-1.7290917E-1,-4.672909E-1,-5.7811695E-1,-1.430405E-1,-1.4547198E-1,-3.1192082E-1,-3.0331852E-2,-1.8438394E-1,-2.0892139E-1,-3.1111103E-1,9.65599E-2,-2.3814875E-1,-2.289741E-1,-3.787894E-2,-6.83448E-3,1.4138258E-1,7.1500584E-2,-2.349713E-1,-1.8655328E-1,2.4395155E-2,1.0298989E-2,3.361696E-1,-3.8106948E-2,5.104519E-1,1.1503785E-1,6.4323497E-1,4.0988714E-1,-5.9271302E-2,2.6992553E-1,5.0109076E-1,6.6034056E-2,2.4115734E-1,6.6760086E-2,-8.004999E-2,-3.8670503E-2,-1.4849602E-1,-1.9114438E-1,-1.3541281E-1,-1.0000515E-1,4.7515895E-2,-9.7648084E-2,-1.3586844E-2,7.28287E-2,-1.0129347E-1,-1.0644023E-1,-1.7572341E-2,4.9133273E-3,7.543948E-2,3.6765844E-2,-8.071122E-2,-2.6608067E-2,-1.2226469E-1,-3.1474467E-2,2.6826132E-2,1.4853895E-1,-9.006815E-3,1.0556765E-1,1.4922891E-2,-2.0891422E-2,3.725843E-2,-8.6063094E-2,6.314656E-3,9.983686E-2,-7.1003616E-2,-1.0314897E-1,1.5839165E-2,-2.2855286E-2,4.2959474E-2,1.5490708E-1,-5.8897164E-2,1.7943732E-1,4.9486924E-2,1.12525634E-1,2.5785234E-2,6.455147E-2,2.5711164E-1,8.106001E-2,1.5841472E-1,-3.5918474E-2,4.552056E-2,9.055069E-2,-1.940806E-2,2.0292906E-1,8.937391E-2],"categories":[],"categories_nodes":[],"categories_segments":[],"categories_sizes":[],"default_left":[0,0,0,0,0,0,0,0,0,0,0,0,0,0,0,0,0,0,0,0,0,0,0,0,0,0,0,0,0,0,0,0,0,0,0,0,0,0,0,0,0,0,0,0,0,0,0,0,0,0,0,0,0,0,0,0,0,0,0,0,0,0,0,0,0,0,0,0,0,0,0,0,0,0,0,0,0,0,0,0,0,0,0,0,0,0,0,0,0,0,0,0,0,0,0,0,0,0,0,0,0,0,0,0,0,0,0,0,0,0,0,0,0,0,0],"id":4,"left_children":[1,3,5,7,9,11,13,15,17,19,21,23,25,27,29,31,33,35,37,39,41,43,45,47,49,51,53,55,57,59,61,63,65,67,69,71,73,-1,-1,-1,75,77,79,81,83,85,87,89,91,93,95,97,99,-1,101,103,105,107,109,111,113,-1,-1,-1,-1,-1,-1,-1,-1,-1,-1,-1,-1,-1,-1,-1,-1,-1,-1,-1,-1,-1,-1,-1,-1,-1,-1,-1,-1,-1,-1,-1,-1,-1,-1,-1,-1,-1,-1,-1,-1,-1,-1,-1,-1,-1,-1,-1,-1,-1,-1,-1,-1,-1,-1],"loss_changes":[3.506597E1,9.101112E0,1.0821732E1,2.175089E0,3.3428822E0,1.6314199E0,4.3618393E0,5.182133E-1,5.541234E-1,9.599805E-1,1.4733225E0,7.6438475E-1,1.0899105E0,3.288374E0,1.5670128E0,8.926039E-1,7.250395E-1,4.864056E-1,1.2128377E-1,5.8040524E-1,7.97627E-1,9.697875E-1,5.0891125E-1,3.7233317E-1,5.9992516E-1,8.282359E-1,4.8724806E-1,2.1072192E0,1.2819777E0,6.126776E-1,2.754879E-2,7.279286E-1,2.6421404E-1,7.90081E-2,3.9698532E-1,8.509394E-1,5.3856564E-1,0E0,0E0,0E0,1.8884933E-1,1.07667126E-1,5.009179E-1,8.9072454E-1,8.371439E-1,5.270105E-1,9.470466E-1,4.5834616E-2,4.8443878E-1,5.473453E-1,5.829041E-1,7.005232E-1,9.6491015E-1,0E0,1.4365888E-1,1.1931329E0,5.477619E-1,1.2603054E0,1.0746464E-1,2.8646994E-1,1.0453606E0,0E0,0E0,0E0,0E0,0E0,0E0,0E0,0E0,0E0,0E0,0E0,0E0,0E0,0E0,0E0,0E0,0E0,0E0,0E0,0E0,0E0,0E0,0E0,0E0,0E0,0E0,0E0,0E0,0E0,0E0,0E0,0E0,0E0,0E0,0E0,0E0,0E0,0E0,0E0,0E0,0E0,0E0,0E0,0E0,0E0,0E0,0E0,0E0,0E0,0E0,0E0,0E0,0E0,0E0],"parents":[2147483647,0,0,1,1,2,2,3,3,4,4,5,5,6,6,7,7,8,8,9,9,10,10,11,11,12,12,13,13,14,14,15,15,16,16,17,17,18,18,19,19,20,20,21,21,22,22,23,23,24,24,25,25,26,26,27,27,28,28,29,29,30,30,31,31,32,32,33,33,34,34,35,35,36,36,40,40,41,41,42,42,43,43,44,44,45,45,46,46,47,47,48,48,49,49,50,50,51,51,52,52,54,54,55,55,56,56,57,57,58,58,59,59,60,60],"right_children":[2,4,6,8,10,12,14,16,18,20,22,24,26,28,30,32,34,36,38,40,42,44,46,48,50,52,54,56,58,60,62,64,66,68,70,72,74,-1,-1,-1,76,78,80,82,84,86,88,90,92,94,96,98,100,-1,102,104,106,108,110,112,114,-1,-1,-1,-1,-1,-1,-1,-1,-1,-1,-1,-1,-1,-1,-1,-1,-1,-1,-1,-1,-1,-1,-1,-1,-1,-1,-1,-1,-1,-1,-1,-1,-1,-1,-1,-1,-1,-1,-1,-1,-1,-1,-1,-1,-1,-1,-1,-1,-1,-1,-1,-1,-1,-1],"split_conditions":[5.006036E0,3.7127092E0,3.2674255E0,2.569523E0,1.3347998E0,7.671883E0,8.480421E0,5.1624784E0,9.590241E0,5.596403E0,7.511771E0,8.771764E-1,9.317314E0,8.343248E0,8.900053E0,4.050011E0,3.4519222E0,5.1821833E0,2.3474738E-2,3.2518332E0,6.262593E0,2.2309003E0,3.063135E0,1.6820365E0,2.4894352E0,9.746906E0,4.0350828E-1,9.531201E0,8.953461E0,9.000832E0,3.0652502E-1,2.4848914E0,1.9401246E-1,6.314588E0,5.621888E0,2.7366638E0,2.625103E0,-3.0331852E-2,-1.8438394E-1,-2.0892139E-1,6.7213554E0,7.1217923E0,1.0789143E0,1.562015E0,3.9847877E0,8.134878E-1,3.433867E0,5.323602E0,6.812821E0,1.013729E0,1.696913E-1,1.8180846E0,6.9262595E0,-3.8106948E-2,8.824951E0,9.1486835E-1,6.596903E0,5.0005827E0,9.629269E0,8.511367E0,9.405373E0,6.6034056E-2,2.4115734E-1,6.6760086E-2,-8.004999E-2,-3.8670503E-2,-1.4849602E-1,-1.9114438E-1,-1.3541281E-1,-1.0000515E-1,4.7515895E-2,-9.7648084E-2,-1.3586844E-2,7.28287E-2,-1.0129347E-1,-1.0644023E-1,-1.7572341E-2,4.9133273E-3,7.543948E-2,3.6765844E-2,-8.071122E-2,-2.6608067E-2,-1.2226469E-1,-3.1474467E-2,2.6826132E-2,1.4853895E-1,-9.006815E-3,1.0556765E-1,1.4922891E-2,-2.0891422E-2,3.725843E-2,-8.6063094E-2,6.314656E-3,9.983686E-2,-7.1003616E-2,-1.0314897E-1,1.5839165E-2,-2.2855286E-2,4.2959474E-2,1.5490708E-1,-5.8897164E-2,1.7943732E-1,4.9486924E-2,1.12525634E-1,2.5785234E-2,6.455147E-2,2.5711164E-1,8.106001E-2,1.5841472E-1,-3.5918474E-2,4.552056E-2,9.055069E-2,-1.940806E-2,2.0292906E-1,8.937391E-2],"split_indices":[0,1,1,0,0,0,1,6,6,1,1,1,5,0,0,5,1,3,2,5,1,2,0,4,4,0,1,6,2,1,3,2,6,5,7,2,0,0,0,0,4,6,3,2,0,7,0,0,4,1,5,1,6,0,4,4,0,2,0,4,1,0,0,0,0,0,0,0,0,0,0,0,0,0,0,0,0,0,0,0,0,0,0,0,0,0,0,0,0,0,0,0,0,0,0,0,0,0,0,0,0,0,0,0,0,0,0,0,0,0,0,0,0,0,0],"split_type":[0,0,0,0,0,0,0,0,0,0,0,0,0,0,0,0,0,0,0,0,0,0,0,0,0,0,0,0,0,0,0,0,0,0,0,0,0,0,0,0,0,0,0,0,0,0,0,0,0,0,0,0,0,0,0,0,0,0,0,0,0,0,0,0,0,0,0,0,0,0,0,0,0,0,0,0,0,0,0,0,0,0,0,0,0,0,0,0,0,0,0,0,0,0,0,0,0,0,0,0,0,0,0,0,0,0,0,0,0,0,0,0,0,0,0],"sum_hessian":[1E3,4.84E2,5.16E2,1.87E2,2.97E2,1.84E2,3.32E2,1.04E2,8.3E1,7.3E1,2.24E2,1.09E2,7.5E1,2.58E2,7.4E1,5.1E1,5.3E1,7.8E1,5E0,2.4E1,4.9E1,1.32E2,9.2E1,3.9E1,7E1,6.7E1,8E0,1.68E2,9E1,5.8E1,1.6E1,1.7E1,3.4E1,4.8E1,5E0,4.7E1,3.1E1,1E0,4E0,6E0,1.8E1,8E0,4.1E1,3.6E1,9.6E1,4.3E1,4.9E1,4E0,3.5E1,1.7E1,5.3E1,5.9E1,8E0,1E0,7E0,1.61E2,7E0,8.4E1,6E0,2.4E1,3.4E1,1E0,1.5E1,3E0,1.4E1,3E0,3.1E1,3E1,1.8E1,3E0,2E0,1.6E1,3.1E1,1E0,3E1,1.5E1,3E0,6E0,2E0,3E0,3.8E1,2.1E1,1.5E1,6.3E1,3.3E1,1E0,4.2E1,1.4E1,3.5E1,1E0,3E0,2.9E1,6E0,1E0,1.6E1,3E0,5E1,3.6E1,2.3E1,6E0,2E0,5E0,2E0,1.5E1,1.46E2,3E0,4E0,4E1,4.4E1,5E0,1E0,2.2E1,2E0,1.7E1,1.7E1],"tree_param":{"num_deleted":"0","num_feature":"8","num_nodes":"115","size_leaf_vector":"1"}},{"base_weights":[-3.0313054E-4,-1.2171509E-1,1.5044394E-1,-2.4570942E-1,-4.4360843E-2,5.3118058E-2,2.9055825E-1,-3.2987586E-1,-1.6237745E-1,-1.2628008E-1,3.408684E-2,4.5020347E-3,1.809232E-1,4.432322E-1,2.5145808E-1,-4.0824568E-1,-2.5933057E-1,-1.4243357E-1,-4.810084E-1,-1.8407689E-1,-4.4725593E-2,1.5584775E-2,2.8564966E-1,-1.7577784E-1,2.9926827E-2,4.5824718E-2,2.5468352E-1,1.2793708E-1,5.020267E-1,2.6296502E-2,2.9056332E-1,-1.8078506E-1,-4.633462E-1,-2.1122554E-1,-2.3087353E-1,-2.424109E-1,-8.119798E-2,-2.5782073E-2,-1.628502E-1,-2.4566948E-1,-5.5313624E-2,1.454193E-1,-5.9213985E-2,-1.7724467E-2,1.3981123E-1,-6.243439E-2,3.4945682E-1,4.044237E-2,-2.1014053E-1,-1.0326692E-1,7.036822E-2,-6.1283775E-2,3.0786785E-1,1.6668907E-1,4.312924E-1,2.1272926E-1,-5.602892E-2,-9.1590166E-2,5.47699E-1,2.0371543E-1,-1.2585002E-1,1.7709224E-1,3.8474318E-1,-8.821304E-2,6.5775536E-2,-4.035767E-2,-1.4630619E-1,-5.5050578E-2,-1.2912984E-1,-1.693298E-1,-6.292482E-2,-8.728388E-2,-1.2892653E-2,-6.176628E-2,-1.6546845E-1,-1.1447371E-1,1.930634E-2,2.083914E-2,-3.3622313E-2,-3.157867E-2,2.0239435E-2,6.60533E-2,-2.4936792E-2,4.6841756E-2,1.3128555E-1,-7.569255E-2,1.28077185E-2,-4.1645594E-2,1.14443116E-1,-3.0025076E-2,3.3453993E-2,-3.7496865E-2,1.7236888E-1,1.1738858E-1,5.3865712E-2,1.5090036E-1,3.4887347E-2,3.6324173E-2,1.496266E-1,1.7793097E-2,7.0876926E-2,1.9335509E-3,-2.7146567E-2,-4.9316885E-5,-4.116626E-2,2.9024221E-2,1.7938298E-1,1.4923927E-1,-3.719578E-2,-5.9807554E-2,5.5689335E-2,2.6725516E-2,1.3608278E-1,7.495182E-2,1.4359504E-1],"categories":[],"categories_nodes":[],"categories_segments":[],"categories_sizes":[],"default_left":[0,0,0,0,0,0,0,0,0,0,0,0,0,0,0,0,0,0,0,0,0,0,0,0,0,0,0,0,0,0,0,0,0,0,0,0,0,0,0,0,0,0,0,0,0,0,0,0,0,0,0,0,0,0,0,0,0,0,0,0,0,0,0,0,0,0,0,0,0,0,0,0,0,0,0,0,0,0,0,0,0,0,0,0,0,0,0,0,0,0,0,0,0,0,0,0,0,0,0,0,0,0,0,0,0,0,0,0,0,0,0,0,0,0,0],"id":5,"left_children":[1,3,5,7,9,11,13,15,17,19,21,23,25,27,29,31,33,35,37,39,41,43,45,47,49,51,53,55,57,59,61,63,65,-1,67,69,71,-1,-1,73,75,-1,77,79,81,-1,83,-1,85,87,89,91,93,95,97,99,101,103,105,107,109,111,113,-1,-1,-1,-1,-1,-1,-1,-1,-1,-1,-1,-1,-1,-1,-1,-1,-1,-1,-1,-1,-1,-1,-1,-1,-1,-1,-1,-1,-1,-1,-1,-1,-1,-1,-1,-1,-1,-1,-1,-1,-1,-1,-1,-1,-1,-1,-1,-1,-1,-1,-1,-1],"loss_changes":[1.8339111E1,5.312376E0,6.0801926E0,1.4403648E0,2.2085507E0,1.6457305E0,9.80978E-1,4.7463512E-1,6.2415457E-1,7.8365016E-1,8.1472814E-1,8.898911E-1,7.157674E-1,6.0312605E-1,1.2954988E0,5.178275E-1,5.7151604E-1,6.170225E-1,9.99006E-2,7.636359E-1,5.73342E-1,6.852297E-1,4.507956E-1,2.8447008E-1,9.2297864E-1,7.766775E-1,6.5851617E-1,1.2111115E-1,8.635187E-1,6.46492E-1,1.2783871E0,5.628524E-1,2.3853874E-1,0E0,4.504075E-1,2.918017E-1,5.166248E-1,0E0,0E0,6.8959117E-1,1.3129936E0,0E0,4.8392218E-1,9.8400486E-1,6.453757E-1,0E0,1.1914575E-1,0E0,2.453236E-1,7.422952E-1,9.2989695E-1,8.8195634E-1,1.538223E-2,5.008367E-1,2.535274E-1,4.03513E-3,7.041715E-3,1.2492908E-2,5.7656765E-1,1.1205592E0,3.3466175E-1,1.3953837E0,7.418661E-1,0E0,0E0,0E0,0E0,0E0,0E0,0E0,0E0,0E0,0E0,0E0,0E0,0E0,0E0,0E0,0E0,0E0,0E0,0E0,0E0,0E0,0E0,0E0,0E0,0E0,0E0,0E0,0E0,0E0,0E0,0E0,0E0,0E0,0E0,0E0,0E0,0E0,0E0,0E0,0E0,0E0,0E0,0E0,0E0,0E0,0E0,0E0,0E0,0E0,0E0,0E0,0E0],"parents":[2147483647,0,0,1,1,2,2,3,3,4,4,5,5,6,6,7,7,8,8,9,9,10,10,11,11,12,12,13,13,14,14,15,15,16,16,17,17,18,18,19,19,20,20,21,21,22,22,23,23,24,24,25,25,26,26,27,27,28,28,29,29,30,30,31,31,32,32,34,34,35,35,36,36,39,39,40,40,42,42,43,43,44,44,46,46,48,48,49,49,50,50,51,51,52,52,53,53,54,54,55,55,56,56,57,57,58,58,59,59,60,60,61,61,62,62],"right_children":[2,4,6,8,10,12,14,16,18,20,22,24,26,28,30,32,34,36,38,40,42,44,46,48,50,52,54,56,58,60,62,64,66,-1,68,70,72,-1,-1,74,76,-1,78,80,82,-1,84,-1,86,88,90,92,94,96,98,100,102,104,106,108,110,112,114,-1,-1,-1,-1,-1,-1,-1,-1,-1,-1,-1,-1,-1,-1,-1,-1,-1,-1,-1,-1,-1,-1,-1,-1,-1,-1,-1,-1,-1,-1,-1,-1,-1,-1,-1,-1,-1,-1,-1,-1,-1,-1,-1,-1,-1,-1,-1,-1,-1,-1,-1,-1],"split_conditions":[5.7212296E0,3.7127092E0,5.298756E0,2.569523E0,3.0430758E0,8.505745E0,2.606664E0,1.2886987E0,9.7479315E0,7.3791738E0,8.952068E0,5.4332036E-1,2.1120825E0,1.4255656E0,3.507098E0,2.3647492E0,2.3474738E-2,1.0868254E0,8.771764E-1,6.5550995E0,7.5746903E0,8.480421E0,1.9972932E-1,1.3745554E-1,2.0091133E0,7.6112156E0,5.98563E0,5.296506E0,6.2263055E0,3.2703316E0,7.7659683E0,6.929202E0,3.616038E-1,-2.1122554E-1,8.265511E0,1.1151221E0,9.1325736E-1,-2.5782073E-2,-1.628502E-1,6.9340086E0,2.3818278E0,1.454193E-1,2.4685702E0,4.8726535E0,6.0671506E0,-6.243439E-2,3.3091476E0,4.044237E-2,8.898364E0,9.291448E0,1.9343535E0,9.678646E0,2.3663313E0,2.7109625E0,1.642658E0,6.0708957E0,6.1449947E0,8.785155E0,5.857783E0,4.1607065E0,7.693049E0,7.2837086E0,4.174483E0,-8.821304E-2,6.5775536E-2,-4.035767E-2,-1.4630619E-1,-5.5050578E-2,-1.2912984E-1,-1.693298E-1,-6.292482E-2,-8.728388E-2,-1.2892653E-2,-6.176628E-2,-1.6546845E-1,-1.1447371E-1,1.930634E-2,2.083914E-2,-3.3622313E-2,-3.157867E-2,2.0239435E-2,6.60533E-2,-2.4936792E-2,4.6841756E-2,1.3128555E-1,-7.569255E-2,1.28077185E-2,-4.1645594E-2,1.14443116E-1,-3.0025076E-2,3.3453993E-2,-3.7496865E-2,1.7236888E-1,1.1738858E-1,5.3865712E-2,1.5090036E-1,3.4887347E-2,3.6324173E-2,1.496266E-1,1.7793097E-2,7.0876926E-2,1.9335509E-3,-2.7146567E-2,-4.9316885E-5,-4.116626E-2,2.9024221E-2,1.7938298E-1,1.4923927E-1,-3.719578E-2,-5.9807554E-2,5.5689335E-2,2.6725516E-2,1.3608278E-1,7.495182E-2,1.4359504E-1],"split_indices":[0,1,1,0,0,0,5,1,6,1,7,1,1,7,5,5,2,1,1,3,1,1,2,5,3,3,7,4,1,2,1,4,2,0,7,6,6,0,0,1,7,0,4,6,3,0,3,0,3,6,5,2,2,1,2,0,0,0,0,6,6,4,2,0,0,0,0,0,0,0,0,0,0,0,0,0,0,0,0,0,0,0,0,0,0,0,0,0,0,0,0,0,0,0,0,0,0,0,0,0,0,0,0,0,0,0,0,0,0,0,0,0,0,0,0],"split_type":[0,0,0,0,0,0,0,0,0,0,0,0,0,0,0,0,0,0,0,0,0,0,0,0,0,0,0,0,0,0,0,0,0,0,0,0,0,0,0,0,0,0,0,0,0,0,0,0,0,0,0,0,0,0,0,0,0,0,0,0,0,0,0,0,0,0,0,0,0,0,0,0,0,0,0,0,0,0,0,0,0,0,0,0,0,0,0,0,0,0,0,0,0,0,0,0,0,0,0,0,0,0,0,0,0,0,0,0,0,0,0,0,0,0,0],"sum_hessian":[1E3,5.54E2,4.46E2,2.12E2,3.42E2,2.64E2,1.82E2,1.04E2,1.08E2,1.67E2,1.75E2,1.92E2,7.2E1,3.5E1,1.47E2,4.7E1,5.7E1,1.03E2,5E0,9.7E1,7E1,1.64E2,1.1E1,2.3E1,1.69E2,2.6E1,4.6E1,6E0,2.9E1,2.2E1,1.25E2,1E1,3.7E1,2E0,5.5E1,3.8E1,6.5E1,1E0,4E0,6.5E1,3.2E1,1E0,6.9E1,1.3E2,3.4E1,1E0,1E1,2E0,2.1E1,3.9E1,1.3E2,1.9E1,7E0,3.2E1,1.4E1,4E0,2E0,2E0,2.7E1,1E1,1.2E1,5.8E1,6.7E1,8E0,2E0,3E0,3.4E1,4.6E1,9E0,2E0,3.6E1,9E0,5.6E1,5.9E1,6E0,8E0,2.4E1,2E1,4.9E1,6.4E1,6.6E1,2.5E1,9E0,4E0,6E0,1.8E1,3E0,3.7E1,2E0,2.5E1,1.05E2,1.8E1,1E0,3E0,4E0,3E0,2.9E1,3E0,1.1E1,1E0,3E0,1E0,1E0,1E0,1E0,3E0,2.4E1,5E0,5E0,1E1,2E0,4.5E1,1.3E1,2.9E1,3.8E1],"tree_param":{"num_deleted":"0","num_feature":"8","num_nodes":"115","size_leaf_vector":"1"}},{"base_weights":[6.9248E-5,-1.118689E-1,8.699982E-2,-1.8634233E-1,-2.473788E-2,-4.5123972E-2,1.2707682E-1,-2.677986E-1,-1.5314284E-1,-1.5070767E-2,-4.045414E-1,-6.4024135E-2,3.624501E-1,4.8523173E-2,1.9881168E-1,-4.74001E-1,-2.3584165E-1,-1.3604242E-1,-3.879542E-1,-3.73837E-2,1.2253265E-1,-1.4283895E-1,-1.772815E-2,-1.9566905E-1,-3.302892E-2,1.0960329E-2,1.260979E-1,6.0109083E-2,-2.9274493E-1,7.031589E-2,2.3491664E-1,-1.6776362E-1,-1.4557852E-1,-4.3157083E-1,-2.0184778E-1,-7.9583645E-2,-2.3947327E-1,-2.1914758E-2,-4.121398E-1,1.5775558E-2,-1.0317468E-1,-2.2839694E-1,1.9053745E-1,-7.845183E-2,-3.0634862E-1,4.4394907E-2,-1.1435946E-1,-4.1190747E-2,1.0021447E-1,-4.0499085E-1,5.7109598E-2,-7.9208486E-2,1.542749E-1,2.0120199E-1,3.4451643E-1,2.8276118E-3,-6.833795E-2,-1.5677756E-1,-3.1701565E-2,1.019915E-2,-6.8136975E-2,-8.49692E-2,-1.6549725E-2,-4.246236E-2,-1.1214917E-1,-4.150737E-2,-1.3898717E-1,-9.398448E-3,3.6134403E-2,-5.298928E-2,1.6928628E-3,-9.9615246E-2,-1.458323E-2,6.8350226E-2,-4.3945078E-2,1.3576865E-2,-3.151752E-2,-1.3718285E-1,-5.211761E-2,3.6640016E-3,1.7622314E-1,-1.5844229E-1,-2.6007611E-2,4.859797E-2,-6.0008068E-2,7.885339E-2,1.32271005E-2,-5.18829E-2,-1.7381732E-1,2.7911445E-2,-8.4279366E-2,-1.8740226E-2,6.783935E-2,5.4363362E-2,1.310892E-1,2.3221732E-3,1.17721826E-1],"categories":[],"categories_nodes":[],"categories_segments":[],"categories_sizes":[],"default_left":[0,0,0,0,0,0,0,0,0,0,0,0,0,0,0,0,0,0,0,0,0,0,0,0,0,0,0,0,0,0,0,0,0,0,0,0,0,0,0,0,0,0,0,0,0,0,0,0,0,0,0,0,0,0,0,0,0,0,0,0,0,0,0,0,0,0,0,0,0,0,0,0,0,0,0,0,0,0,0,0,0,0,0,0,0,0,0,0,0,0,0,0,0,0,0,0,0],"id":6,"left_children":[1,3,5,7,9,11,13,15,17,19,21,23,25,27,29,31,33,35,37,39,41,-1,-1,43,45,-1,-1,47,49,51,53,-1,55,57,59,61,63,-1,65,67,69,71,73,75,77,79,81,83,85,87,-1,89,91,93,95,-1,-1,-1,-1,-1,-1,-1,-1,-1,-1,-1,-1,-1,-1,-1,-1,-1,-1,-1,-1,-1,-1,-1,-1,-1,-1,-1,-1,-1,-1,-1,-1,-1,-1,-1,-1,-1,-1,-1,-1,-1,-1],"loss_changes":[9.75031E0,2.8375492E0,2.9921846E0,5.972042E-1,7.3923874E-1,1.0400299E0,2.4303236E0,3.297143E-1,6.2983537E-1,6.1557764E-1,9.5514E-2,5.1174325E-1,9.782016E-2,8.40008E-1,1.031971E0,1.4247262E-1,3.12104E-1,9.152746E-1,5.367136E-2,6.031804E-1,7.117354E-1,0E0,0E0,2.873317E-1,6.599568E-1,0E0,0E0,8.2478696E-1,4.5668632E-1,6.524697E-1,5.810232E-1,0E0,4.0377796E-2,1.8208575E-1,3.2365918E-1,5.0650185E-1,6.839292E-1,0E0,7.594156E-2,4.7709772E-1,6.164831E-1,7.703641E-2,3.3504784E-1,4.7543354E-2,1.6075754E-1,9.3648064E-1,5.3807616E-1,1.9042344E0,1.3118953E0,1.4261347E-1,0E0,6.8631244E-1,5.280774E-1,5.6650734E-1,6.42086E-1,0E0,0E0,0E0,0E0,0E0,0E0,0E0,0E0,0E0,0E0,0E0,0E0,0E0,0E0,0E0,0E0,0E0,0E0,0E0,0E0,0E0,0E0,0E0,0E0,0E0,0E0,0E0,0E0,0E0,0E0,0E0,0E0,0E0,0E0,0E0,0E0,0E0,0E0,0E0,0E0,0E0,0E0],"parents":[2147483647,0,0,1,1,2,2,3,3,4,4,5,5,6,6,7,7,8,8,9,9,10,10,11,11,12,12,13,13,14,14,15,15,16,16,17,17,18,18,19,19,20,20,23,23,24,24,27,27,28,28,29,29,30,30,32,32,33,33,34,34,35,35,36,36,38,38,39,39,40,40,41,41,42,42,43,43,44,44,45,45,46,46,47,47,48,48,49,49,51,51,52,52,53,53,54,54],"right_children":[2,4,6,8,10,12,14,16,18,20,22,24,26,28,30,32,34,36,38,40,42,-1,-1,44,46,-1,-1,48,50,52,54,-1,56,58,60,62,64,-1,66,68,70,72,74,76,78,80,82,84,86,88,-1,90,92,94,96,-1,-1,-1,-1,-1,-1,-1,-1,-1,-1,-1,-1,-1,-1,-1,-1,-1,-1,-1,-1,-1,-1,-1,-1,-1,-1,-1,-1,-1,-1,-1,-1,-1,-1,-1,-1,-1,-1,-1,-1,-1,-1],"split_conditions":[4.4730277E0,5.26094E0,1.9609771E0,1.3347998E0,9.948663E0,9.57448E0,7.0328007E0,1.0590581E0,9.672712E0,8.870864E0,2.0642128E0,2.3290184E0,5.657473E0,9.627684E0,1.885406E0,5.8008623E0,1.1927167E0,6.9287844E0,2.3474738E-2,5.6701627E0,2.3290184E0,-1.4283895E-1,-1.772815E-2,4.830141E0,5.804676E0,1.0960329E-2,1.260979E-1,1.9577799E0,7.3791738E0,8.455108E0,7.405095E0,-1.6776362E-1,1.184617E0,4.6904073E0,8.6920285E-1,1.7714978E0,5.5236616E0,-2.1914758E-2,4.869485E-1,8.791858E0,4.9753985E0,3.6602826E0,9.430758E0,1.1974679E0,5.487338E0,9.442665E0,5.9346137E0,7.764934E-1,3.9249356E0,5.931582E0,5.7109598E-2,5.2594657E0,3.8705E0,9.348221E0,2.5276587E0,2.8276118E-3,-6.833795E-2,-1.5677756E-1,-3.1701565E-2,1.019915E-2,-6.8136975E-2,-8.49692E-2,-1.6549725E-2,-4.246236E-2,-1.1214917E-1,-4.150737E-2,-1.3898717E-1,-9.398448E-3,3.6134403E-2,-5.298928E-2,1.6928628E-3,-9.9615246E-2,-1.458323E-2,6.8350226E-2,-4.3945078E-2,1.3576865E-2,-3.151752E-2,-1.3718285E-1,-5.211761E-2,3.6640016E-3,1.7622314E-1,-1.5844229E-1,-2.6007611E-2,4.859797E-2,-6.0008068E-2,7.885339E-2,1.32271005E-2,-5.18829E-2,-1.7381732E-1,2.7911445E-2,-8.4279366E-2,-1.8740226E-2,6.783935E-2,5.4363362E-2,1.310892E-1,2.3221732E-3,1.17721826E-1],"split_indices":[0,1,1,0,3,7,0,5,6,6,0,3,0,2,6,3,3,3,2,6,3,0,0,2,6,0,0,2,1,0,3,0,0,1,2,5,4,0,3,1,4,2,4,7,2,0,6,2,2,0,0,4,5,6,6,0,0,0,0,0,0,0,0,0,0,0,0,0,0,0,0,0,0,0,0,0,0,0,0,0,0,0,0,0,0,0,0,0,0,0,0,0,0,0,0,0,0],"split_type":[0,0,0,0,0,0,0,0,0,0,0,0,0,0,0,0,0,0,0,0,0,0,0,0,0,0,0,0,0,0,0,0,0,0,0,0,0,0,0,0,0,0,0,0,0,0,0,0,0,0,0,0,0,0,0,0,0,0,0,0,0,0,0,0,0,0,0,0,0,0,0,0,0,0,0,0,0,0,0,0,0,0,0,0,0,0,0,0,0,0,0,0,0,0,0,0,0],"sum_hessian":[1E3,4.37E2,5.63E2,2.35E2,2.02E2,1.31E2,4.32E2,6.6E1,1.69E2,1.98E2,4E0,1.26E2,5E0,2.07E2,2.25E2,7E0,5.9E1,1.59E2,1E1,1.71E2,2.7E1,3E0,1E0,2.3E1,1.03E2,1E0,4E0,2.01E2,6E0,5E1,1.75E2,5E0,2E0,7E0,5.2E1,1.04E2,5.5E1,1E0,9E0,9.5E1,7.6E1,4E0,2.3E1,1.2E1,1.1E1,5.3E1,5E1,5.7E1,1.44E2,5E0,1E0,1.8E1,3.2E1,1.36E2,3.9E1,1E0,1E0,5E0,2E0,5E0,4.7E1,1E1,9.4E1,3.3E1,2.2E1,2E0,7E0,6.6E1,2.9E1,4.5E1,3.1E1,2E0,2E0,2.1E1,2E0,2E0,1E1,4E0,7E0,5.1E1,2E0,2E0,4.8E1,2.5E1,3.2E1,3.6E1,1.08E2,3E0,2E0,1E1,8E0,8E0,2.4E1,1.27E2,9E0,5E0,3.4E1],"tree_param":{"num_deleted":"0","num_feature":"8","num_nodes":"97","size_leaf_vector":"1"}},{"base_weights":[-1.0280196E-3,-1.081268E-1,4.8535984E-2,-1.5301311E-1,-3.6086492E-2,2.5244815E-2,1.8295972E-1,-2.5721055E-1,-1.3617696E-1,-3.3376452E-1,-2.3275763E-2,-1.5523603E-2,8.188476E-2,1.476821E-1,4.3229517E-1,-2.8616634E-1,7.000256E-2,1.673443E-1,-1.5219864E-1,-1.376433E-1,2.4963213E-2,-3.0215143E-3,-2.2186098E-1,1.569409E-1,-3.2056976E-2,6.3837715E-3,1.2568285E-1,3.9028442E-1,1.12478256E-1,4.6236137E-1,1.5235019E-2,3.431639E-2,-3.0762225E-1,2.550648E-1,-9.311824E-2,-1.0864378E-1,-2.263937E-1,-1.4435604E-2,9.006218E-2,-4.1133882E-3,-1.0371017E-1,2.165124E-1,-1.1743047E-1,-2.4441315E-2,-3.183969E-1,2.591579E-1,-1.7765952E-2,1.05232224E-1,4.45745E-1,-4.5802835E-3,4.3236637E-1,1.2694688E-1,-9.035959E-2,4.949588E-1,2.0458102E-2,4.3061734E-3,-1.0126359E-1,9.486581E-2,2.0435687E-2,-3.4613986E-2,-7.2892252E-3,-7.816276E-2,-1.6401172E-2,-5.295509E-2,-1.283972E-1,-6.753186E-3,1.2501615E-1,-4.5491625E-2,2.1203293E-2,-2.2364073E-2,7.7877246E-2,4.290011E-2,-5.9435014E-2,-4.2250074E-2,-1.4403709E-3,-3.527309E-2,-1.2461204E-1,1.00995824E-1,5.3346874E-3,-4.0805437E-2,1.1276634E-2,1.247011E-2,5.6144565E-2,7.467535E-2,1.8886486E-1,1.378093E-1,2.840767E-2,-3.791435E-2,4.6110872E-2,1.6766942E-1,4.784036E-2],"categories":[],"categories_nodes":[],"categories_segments":[],"categories_sizes":[],"default_left":[0,0,0,0,0,0,0,0,0,0,0,0,0,0,0,0,0,0,0,0,0,0,0,0,0,0,0,0,0,0,0,0,0,0,0,0,0,0,0,0,0,0,0,0,0,0,0,0,0,0,0,0,0,0,0,0,0,0,0,0,0,0,0,0,0,0,0,0,0,0,0,0,0,0,0,0,0,0,0,0,0,0,0,0,0,0,0,0,0,0,0],"id":7,"left_children":[1,3,5,7,9,11,13,15,17,19,21,23,25,27,29,31,-1,33,35,-1,-1,37,39,41,43,45,47,49,51,53,-1,-1,55,57,59,61,63,65,-1,67,-1,69,71,73,75,77,79,81,83,-1,85,87,-1,89,-1,-1,-1,-1,-1,-1,-1,-1,-1,-1,-1,-1,-1,-1,-1,-1,-1,-1,-1,-1,-1,-1,-1,-1,-1,-1,-1,-1,-1,-1,-1,-1,-1,-1,-1,-1,-1],"loss_changes":[5.3188E0,1.019537E0,2.140038E0,3.070593E-1,4.612885E-1,1.3521068E0,8.245497E-1,4.3608725E-1,8.5216665E-1,2.988844E-1,4.7797072E-1,9.773652E-1,8.093635E-1,7.2474945E-1,1.1416721E-1,2.5004482E-1,0E0,2.293823E-1,4.9891567E-1,0E0,0E0,3.8159147E-1,2.9520142E-1,5.1576656E-1,6.725862E-1,5.601069E-1,9.676411E-1,1.9433188E-1,5.17063E-1,1.0758424E-1,0E0,0E0,2.3607326E-1,5.8487564E-2,1.7927736E-3,8.3839595E-1,5.176971E-1,3.784294E-1,0E0,6.588533E-2,0E0,3.3281088E-1,1.5440987E-1,6.9653946E-1,1.069603E-1,1.4365643E-1,5.549613E-1,7.5885797E-1,1.6889346E-1,0E0,4.7667027E-2,5.48113E-1,0E0,1.2538409E-1,0E0,0E0,0E0,0E0,0E0,0E0,0E0,0E0,0E0,0E0,0E0,0E0,0E0,0E0,0E0,0E0,0E0,0E0,0E0,0E0,0E0,0E0,0E0,0E0,0E0,0E0,0E0,0E0,0E0,0E0,0E0,0E0,0E0,0E0,0E0,0E0,0E0],"parents":[2147483647,0,0,1,1,2,2,3,3,4,4,5,5,6,6,7,7,8,8,9,9,10,10,11,11,12,12,13,13,14,14,15,15,17,17,18,18,21,21,22,22,23,23,24,24,25,25,26,26,27,27,28,28,29,29,32,32,33,33,34,34,35,35,36,36,37,37,39,39,41,41,42,42,43,43,44,44,45,45,46,46,47,47,48,48,50,50,51,51,53,53],"right_children":[2,4,6,8,10,12,14,16,18,20,22,24,26,28,30,32,-1,34,36,-1,-1,38,40,42,44,46,48,50,52,54,-1,-1,56,58,60,62,64,66,-1,68,-1,70,72,74,76,78,80,82,84,-1,86,88,-1,90,-1,-1,-1,-1,-1,-1,-1,-1,-1,-1,-1,-1,-1,-1,-1,-1,-1,-1,-1,-1,-1,-1,-1,-1,-1,-1,-1,-1,-1,-1,-1,-1,-1,-1,-1,-1,-1],"split_conditions":[3.2099705E0,5.773534E0,8.480421E0,1.9343535E0,1.9972932E-1,7.0328007E0,9.336789E0,9.242185E0,2.3647492E0,2.6886156E0,9.725682E0,7.0568746E-1,2.8888495E0,8.2272327E-1,7.4164147E0,1.5651053E-2,7.000256E-2,8.099244E0,6.0379543E0,-1.376433E-1,2.4963213E-2,9.655179E0,6.9665084E0,8.3261175E0,9.75602E0,8.701722E-1,9.348221E0,3.341927E0,9.551152E0,6.565627E0,1.5235019E-2,3.431639E-2,8.2272327E-1,7.0876565E0,9.072088E-1,1.2305212E0,8.616249E0,9.840835E0,9.006218E-2,9.757789E0,-1.0371017E-1,5.1425815E-1,3.4609973E0,8.613577E-1,2.972908E0,7.431932E0,3.5170982E0,5.983575E0,4.874678E0,-4.5802835E-3,8.973659E0,1.4745392E0,-9.035959E-2,8.180148E0,2.0458102E-2,4.3061734E-3,-1.0126359E-1,9.486581E-2,2.0435687E-2,-3.4613986E-2,-7.2892252E-3,-7.816276E-2,-1.6401172E-2,-5.295509E-2,-1.283972E-1,-6.753186E-3,1.2501615E-1,-4.5491625E-2,2.1203293E-2,-2.2364073E-2,7.7877246E-2,4.290011E-2,-5.9435014E-2,-4.2250074E-2,-1.4403709E-3,-3.527309E-2,-1.2461204E-1,1.00995824E-1,5.3346874E-3,-4.0805437E-2,1.1276634E-2,1.247011E-2,5.6144565E-2,7.467535E-2,1.8886486E-1,1.378093E-1,2.840767E-2,-3.791435E-2,4.6110872E-2,1.6766942E-1,4.784036E-2],"split_indices":[0,1,1,5,2,0,0,3,5,0,1,2,1,6,2,7,0,7,4,0,0,1,6,4,2,7,6,0,3,4,0,0,6,3,0,1,3,5,0,1,0,1,0,1,4,6,7,3,1,0,0,6,0,6,0,0,0,0,0,0,0,0,0,0,0,0,0,0,0,0,0,0,0,0,0,0,0,0,0,0,0,0,0,0,0,0,0,0,0,0,0],"split_type":[0,0,0,0,0,0,0,0,0,0,0,0,0,0,0,0,0,0,0,0,0,0,0,0,0,0,0,0,0,0,0,0,0,0,0,0,0,0,0,0,0,0,0,0,0,0,0,0,0,0,0,0,0,0,0,0,0,0,0,0,0,0,0,0,0,0,0,0,0,0,0,0,0,0,0,0,0,0,0,0,0,0,0,0,0,0,0,0,0,0,0],"sum_hessian":[1E3,3.16E2,6.84E2,1.94E2,1.22E2,5.84E2,1E2,2.5E1,1.69E2,4E0,1.18E2,3.4E2,2.44E2,8.9E1,1.1E1,2.4E1,1E0,8E0,1.61E2,3E0,1E0,1.08E2,1E1,2.9E1,3.11E2,9E1,1.54E2,1E1,7.9E1,1E1,1E0,1E0,2.3E1,6E0,2E0,1.03E2,5.8E1,1.05E2,3E0,4E0,6E0,2.4E1,5E0,3.04E2,7E0,7E0,8.3E1,1.46E2,8E0,1E0,9E0,7.7E1,2E0,9E0,1E0,2E0,2.1E1,4E0,2E0,1E0,1E0,2.6E1,7.7E1,4.8E1,1E1,1.04E2,1E0,1E0,3E0,3E0,2.1E1,1E0,4E0,4.3E1,2.61E2,3E0,4E0,5E0,2E0,2.6E1,5.7E1,8.3E1,6.3E1,5E0,3E0,8E0,1E0,7E0,7E1,7E0,2E0],"tree_param":{"num_deleted":"0","num_feature":"8","num_nodes":"91","size_leaf_vector":"1"}},{"base_weights":[-3.724547E-4,-4.2594936E-2,6.729415E-2,-7.4142866E-2,1.7590545E-2,1.7996011E-2,1.2573344E-1,-7.966677E-2,1.3095582E-1,-4.6727516E-2,6.4131156E-2,1.2935054E-1,9.925066E-3,6.4932704E-2,1.6819482E-1,-7.41606E-2,-2.8423843E-1,-7.2659604E-2,9.382359E-2,5.503699E-2,-8.248305E-2,1.6248718E-1,2.9598637E-2,-2.7464502E-2,7.89342E-2,6.766403E-3,2.1141116E-1,2.9800376E-1,8.772183E-2,-1.3652775E-1,-5.3044137E-2,-3.167823E-1,1.2984753E-3,3.0593395E-2,-5.583312E-2,1.7481565E-3,2.5718492E-1,-2.6348191E-1,-2.9700672E-2,2.2283822E-1,-1.3617373E-1,4.1609964E-1,7.5525274E-3,4.8844453E-2,-6.74539E-2,5.25448E-2,1.2819631E-1,-4.0048096E-2,1.2045385E-1,3.6506662E-1,8.877193E-2,3.5904866E-2,4.1316235E-1,1.1528333E-1,-1.5711392E-1,-4.7826923E-2,7.102364E-3,-1.3176036E-2,-7.3223226E-2,-1.0684276E-2,-1.04242966E-1,-1.9900561E-3,2.1341123E-2,-1.449194E-2,6.421298E-2,1.14312135E-1,1.4280344E-2,-1.0822696E-1,-3.0232292E-2,-3.3635404E-2,1.2711876E-2,2.566215E-2,9.356524E-2,-6.8056226E-2,-1.0236007E-2,1.3264132E-2,1.494053E-1,-2.7240768E-2,1.9308735E-2,-2.7174013E-2,3.5109095E-2,-2.7393516E-2,4.642839E-2,-2.9625025E-2,3.0024583E-2,3.882085E-2,-3.0882487E-2,6.7188144E-2,-2.6815178E-2,1.3145043E-1,-3.2961775E-2,-3.295358E-2,5.677538E-2,-1.1667936E-2,4.9008083E-2,1.4578405E-1,5.386677E-2,1.51107265E-2,7.478817E-2,3.5712183E-3,-8.605603E-2],"categories":[],"categories_nodes":[],"categories_segments":[],"categories_sizes":[],"default_left":[0,0,0,0,0,0,0,0,0,0,0,0,0,0,0,0,0,0,0,0,0,0,0,0,0,0,0,0,0,0,0,0,0,0,0,0,0,0,0,0,0,0,0,0,0,0,0,0,0,0,0,0,0,0,0,0,0,0,0,0,0,0,0,0,0,0,0,0,0,0,0,0,0,0,0,0,0,0,0,0,0,0,0,0,0,0,0,0,0,0,0,0,0,0,0,0,0,0,0,0,0],"id":8,"left_children":[1,3,5,7,9,11,13,15,17,19,21,-1,23,25,27,29,31,33,-1,35,37,39,41,43,45,47,49,51,53,55,57,59,-1,61,-1,63,65,67,69,71,73,75,77,79,81,83,-1,85,87,89,91,93,95,97,99,-1,-1,-1,-1,-1,-1,-1,-1,-1,-1,-1,-1,-1,-1,-1,-1,-1,-1,-1,-1,-1,-1,-1,-1,-1,-1,-1,-1,-1,-1,-1,-1,-1,-1,-1,-1,-1,-1,-1,-1,-1,-1,-1,-1,-1,-1],"loss_changes":[2.8627756E0,1.1728189E0,1.1069024E0,4.6927595E-1,6.405912E-1,6.9600594E-1,4.4345474E-1,4.2385173E-1,4.2989045E-1,3.3201757E-1,4.163543E-1,0E0,5.362738E-1,6.2905777E-1,1.049808E0,5.0110984E-1,9.52819E-2,7.597856E-2,0E0,2.5808388E-1,6.3226235E-1,6.071287E-1,7.892958E-1,4.1525388E-1,6.486881E-1,2.922239E-1,3.6332023E-1,1.1622999E0,4.5673525E-1,3.5955894E-1,4.947474E-1,6.529701E-2,0E0,6.5091522E-3,0E0,2.228667E-1,1.1165255E-1,2.0105469E-1,3.195768E-1,3.034178E-1,4.7785327E-2,1.303016E-1,5.031357E-1,4.5741916E-1,4.859712E-1,5.0613964E-1,0E0,4.289582E-1,3.67532E-1,3.6061144E-1,2.8022835E-1,1.3028789E-1,3.7182474E-1,5.0069577E-1,1.569129E-1,0E0,0E0,0E0,0E0,0E0,0E0,0E0,0E0,0E0,0E0,0E0,0E0,0E0,0E0,0E0,0E0,0E0,0E0,0E0,0E0,0E0,0E0,0E0,0E0,0E0,0E0,0E0,0E0,0E0,0E0,0E0,0E0,0E0,0E0,0E0,0E0,0E0,0E0,0E0,0E0,0E0,0E0,0E0,0E0,0E0,0E0],"parents":[2147483647,0,0,1,1,2,2,3,3,4,4,5,5,6,6,7,7,8,8,9,9,10,10,12,12,13,13,14,14,15,15,16,16,17,17,19,19,20,20,21,21,22,22,23,23,24,24,25,25,26,26,27,27,28,28,29,29,30,30,31,31,33,33,35,35,36,36,37,37,38,38,39,39,40,40,41,41,42,42,43,43,44,44,45,45,47,47,48,48,49,49,50,50,51,51,52,52,53,53,54,54],"right_children":[2,4,6,8,10,12,14,16,18,20,22,-1,24,26,28,30,32,34,-1,36,38,40,42,44,46,48,50,52,54,56,58,60,-1,62,-1,64,66,68,70,72,74,76,78,80,82,84,-1,86,88,90,92,94,96,98,100,-1,-1,-1,-1,-1,-1,-1,-1,-1,-1,-1,-1,-1,-1,-1,-1,-1,-1,-1,-1,-1,-1,-1,-1,-1,-1,-1,-1,-1,-1,-1,-1,-1,-1,-1,-1,-1,-1,-1,-1,-1,-1,-1,-1,-1,-1],"split_conditions":[6.1821804E0,6.458108E0,4.8407707E0,9.688779E0,2.958241E0,6.195826E0,4.174483E0,9.7479315E0,1.7182946E0,2.4685702E0,2.1603143E0,1.2935054E-1,6.3541436E0,9.02895E0,6.3509364E0,1.2305212E0,3.630823E0,9.86887E0,9.382359E-2,6.2533016E0,3.3930526E0,8.865954E0,6.5998406E0,3.7253327E0,9.789811E0,7.405095E0,2.0883093E0,1.7352451E0,8.456043E0,8.218015E0,9.656321E0,8.771764E-1,1.2984753E-3,2.9314773E0,-5.583312E-2,8.698963E0,1.9186733E0,9.055821E0,5.2332964E0,2.4848914E0,8.437288E0,6.5060654E0,4.315081E0,3.2693162E0,8.909739E0,1.843014E0,1.2819631E-1,2.1353748E0,6.503257E0,8.799147E0,2.3906639E0,5.183996E0,7.986558E0,6.1784725E0,8.545474E0,-4.7826923E-2,7.102364E-3,-1.3176036E-2,-7.3223226E-2,-1.0684276E-2,-1.04242966E-1,-1.9900561E-3,2.1341123E-2,-1.449194E-2,6.421298E-2,1.14312135E-1,1.4280344E-2,-1.0822696E-1,-3.0232292E-2,-3.3635404E-2,1.2711876E-2,2.566215E-2,9.356524E-2,-6.8056226E-2,-1.0236007E-2,1.3264132E-2,1.494053E-1,-2.7240768E-2,1.9308735E-2,-2.7174013E-2,3.5109095E-2,-2.7393516E-2,4.642839E-2,-2.9625025E-2,3.0024583E-2,3.882085E-2,-3.0882487E-2,6.7188144E-2,-2.6815178E-2,1.3145043E-1,-3.2961775E-2,-3.295358E-2,5.677538E-2,-1.1667936E-2,4.9008083E-2,1.4578405E-1,5.386677E-2,1.51107265E-2,7.478817E-2,3.5712183E-3,-8.605603E-2],"split_indices":[0,1,1,5,0,0,2,6,4,4,5,0,7,0,2,1,1,5,0,2,4,4,1,2,0,3,2,6,3,2,2,1,0,0,0,6,0,1,5,2,1,1,5,4,4,3,0,3,7,7,4,2,5,3,2,0,0,0,0,0,0,0,0,0,0,0,0,0,0,0,0,0,0,0,0,0,0,0,0,0,0,0,0,0,0,0,0,0,0,0,0,0,0,0,0,0,0,0,0,0,0],"split_type":[0,0,0,0,0,0,0,0,0,0,0,0,0,0,0,0,0,0,0,0,0,0,0,0,0,0,0,0,0,0,0,0,0,0,0,0,0,0,0,0,0,0,0,0,0,0,0,0,0,0,0,0,0,0,0,0,0,0,0,0,0,0,0,0,0,0,0,0,0,0,0,0,0,0,0,0,0,0,0,0,0,0,0,0,0,0,0,0,0,0,0,0,0,0,0,0,0,0,0,0,0],"sum_hessian":[1E3,6.16E2,3.84E2,4.04E2,2.12E2,2.09E2,1.75E2,3.94E2,1E1,8.9E1,1.23E2,3E0,2.06E2,7.3E1,1.02E2,3.85E2,9E0,5E0,5E0,2.3E1,6.6E1,3.1E1,9.2E1,1.34E2,7.2E1,5.3E1,2E1,3.8E1,6.4E1,9.6E1,2.89E2,8E0,1E0,3E0,2E0,1.9E1,4E0,1.4E1,5.2E1,2.6E1,5E0,4E0,8.8E1,4.6E1,8.8E1,6.8E1,4E0,3.8E1,1.5E1,8E0,1.2E1,1.2E1,2.6E1,5.8E1,6E0,8.4E1,1.2E1,2.77E2,1.2E1,1E0,7E0,2E0,1E0,1.6E1,3E0,2E0,2E0,8E0,6E0,2.4E1,2.8E1,1.1E1,1.5E1,2E0,3E0,1E0,3E0,3.2E1,5.6E1,1.5E1,3.1E1,8E1,8E0,1.6E1,5.2E1,1E1,2.8E1,1E1,5E0,7E0,1E0,4E0,8E0,8E0,4E0,1.9E1,7E0,4E1,1.8E1,3E0,3E0],"tree_param":{"num_deleted":"0","num_feature":"8","num_nodes":"101","size_leaf_vector":"1"}},{"base_weights":[4.6969412E-4,-6.2338777E-2,2.6550515E-2,-3.0725884E-1,-5.529453E-2,6.075934E-3,6.935072E-2,-1.12029485E-1,2.3392547E-2,-8.388006E-2,-9.214037E-3,2.0725202E-2,-7.8604005E-2,4.6856403E-2,2.2286822E-1,-7.2259E-2,-3.203426E-1,6.848818E-2,-4.5899116E-2,9.188396E-4,7.27745E-2,-3.2399125E-2,-2.8225663E-1,1.2524654E-1,3.9132237E-2,2.6673374E-1,-4.1032933E-2,-1.4714108E-1,-3.5166346E-2,-1.3678032E-1,-1.4780065E-1,1.2821105E-1,-1.5656823E-1,-1.368194E-1,1.3523874E-3,-9.6412515E-3,1.4067058E-1,-4.0550444E-2,1.2206056E-1,-8.745293E-2,1.9051604E-1,-4.402903E-1,-2.4502316E-2,1.1394522E-2,1.4841135E-1,2.911403E-1,-4.7853578E-2,3.2371E-2,-5.2887466E-2,-3.359909E-2,-8.4219284E-2,2.0410705E-2,-2.49169E-2,-9.590864E-3,-6.430947E-2,8.978227E-3,6.1858814E-2,-1.1704994E-2,-5.67748E-2,-8.785005E-2,-8.660531E-4,1.4661401E-2,-3.8317267E-2,6.971755E-3,-2.1370515E-2,-4.8323493E-2,5.997326E-2,2.9625805E-2,-4.8916753E-2,5.6740094E-2,-1.48413E-2,-1.4807131E-2,-8.152873E-2,8.570323E-2,-5.7058193E-2,-1.5630654E-1,-3.9619163E-2,-2.799206E-2,9.968001E-3,-2.6651343E-2,1.061791E-2,1.2014192E-1,3.2784075E-2,9.8978125E-2,2.332954E-2],"categories":[],"categories_nodes":[],"categories_segments":[],"categories_sizes":[],"default_left":[0,0,0,0,0,0,0,0,0,0,0,0,0,0,0,0,0,0,0,0,0,0,0,0,0,0,0,0,0,0,0,0,0,0,0,0,0,0,0,0,0,0,0,0,0,0,0,0,0,0,0,0,0,0,0,0,0,0,0,0,0,0,0,0,0,0,0,0,0,0,0,0,0,0,0,0,0,0,0,0,0,0,0,0,0],"id":9,"left_children":[1,3,5,7,9,11,13,-1,-1,15,17,19,21,23,25,27,29,31,33,35,37,39,41,-1,43,45,47,49,51,-1,53,55,57,59,61,63,65,67,69,71,73,75,77,79,81,83,-1,-1,-1,-1,-1,-1,-1,-1,-1,-1,-1,-1,-1,-1,-1,-1,-1,-1,-1,-1,-1,-1,-1,-1,-1,-1,-1,-1,-1,-1,-1,-1,-1,-1,-1,-1,-1,-1,-1],"loss_changes":[1.6413896E0,4.9024212E-1,6.200105E-1,2.3305428E-1,3.7727374E-1,5.9706867E-1,7.803564E-1,0E0,0E0,4.6323872E-1,3.195504E-1,4.226051E-1,6.589471E-1,5.5909026E-1,3.4665346E-1,4.6701348E-1,1.1977476E-1,5.0395036E-1,3.266902E-1,4.4114202E-1,6.3609314E-1,7.4072856E-1,5.18752E-1,0E0,5.9847724E-1,3.0652E-1,1.19747005E-1,2.3147321E-1,5.740204E-1,0E0,3.169789E-2,2.1610382E-1,2.3349851E-2,5.424341E-1,3.1905484E-1,5.646696E-1,4.0759066E-1,6.133907E-1,9.182633E-1,3.2361493E-1,4.8908088E-1,1.3026047E-1,2.6932376E-2,3.8560703E-1,3.507743E-1,1.7297053E-1,0E0,0E0,0E0,0E0,0E0,0E0,0E0,0E0,0E0,0E0,0E0,0E0,0E0,0E0,0E0,0E0,0E0,0E0,0E0,0E0,0E0,0E0,0E0,0E0,0E0,0E0,0E0,0E0,0E0,0E0,0E0,0E0,0E0,0E0,0E0,0E0,0E0,0E0,0E0],"parents":[2147483647,0,0,1,1,2,2,3,3,4,4,5,5,6,6,9,9,10,10,11,11,12,12,13,13,14,14,15,15,16,16,17,17,18,18,19,19,20,20,21,21,22,22,24,24,25,25,26,26,27,27,28,28,30,30,31,31,32,32,33,33,34,34,35,35,36,36,37,37,38,38,39,39,40,40,41,41,42,42,43,43,44,44,45,45],"right_children":[2,4,6,8,10,12,14,-1,-1,16,18,20,22,24,26,28,30,32,34,36,38,40,42,-1,44,46,48,50,52,-1,54,56,58,60,62,64,66,68,70,72,74,76,78,80,82,84,-1,-1,-1,-1,-1,-1,-1,-1,-1,-1,-1,-1,-1,-1,-1,-1,-1,-1,-1,-1,-1,-1,-1,-1,-1,-1,-1,-1,-1,-1,-1,-1,-1,-1,-1,-1,-1,-1,-1],"split_conditions":[3.0430758E0,1.9972932E-1,7.6221204E0,2.6886156E0,5.596403E0,8.419335E0,8.7709055E0,-1.12029485E-1,2.3392547E-2,2.9314773E0,3.8782609E0,7.364732E0,6.786601E0,1.1031264E-1,8.614457E0,9.944139E-1,3.4508374E0,7.1395793E0,6.2129245E0,9.4064E0,3.2029874E0,7.6099076E0,5.0550876E0,1.2524654E-1,7.994104E0,9.665585E0,3.7204356E0,8.275812E0,4.196274E0,-1.3678032E-1,1.0566468E0,2.8203456E0,6.0905546E-1,1.6748258E0,7.746338E0,6.3641043E0,7.5527084E-1,4.0542283E0,8.082682E0,8.782525E0,6.475198E0,6.7743807E0,5.095089E0,1.6874944E0,1.8712428E0,8.706884E0,-4.7853578E-2,3.2371E-2,-5.2887466E-2,-3.359909E-2,-8.4219284E-2,2.0410705E-2,-2.49169E-2,-9.590864E-3,-6.430947E-2,8.978227E-3,6.1858814E-2,-1.1704994E-2,-5.67748E-2,-8.785005E-2,-8.660531E-4,1.4661401E-2,-3.8317267E-2,6.971755E-3,-2.1370515E-2,-4.8323493E-2,5.997326E-2,2.9625805E-2,-4.8916753E-2,5.6740094E-2,-1.48413E-2,-1.4807131E-2,-8.152873E-2,8.570323E-2,-5.7058193E-2,-1.5630654E-1,-3.9619163E-2,-2.799206E-2,9.968001E-3,-2.6651343E-2,1.061791E-2,1.2014192E-1,3.2784075E-2,9.8978125E-2,2.332954E-2],"split_indices":[0,2,0,0,1,3,1,0,0,0,6,4,5,7,2,0,6,2,6,5,5,6,1,0,3,6,3,2,5,0,1,2,0,0,7,5,1,6,5,2,0,4,1,6,5,5,0,0,0,0,0,0,0,0,0,0,0,0,0,0,0,0,0,0,0,0,0,0,0,0,0,0,0,0,0,0,0,0,0,0,0,0,0,0,0],"split_type":[0,0,0,0,0,0,0,0,0,0,0,0,0,0,0,0,0,0,0,0,0,0,0,0,0,0,0,0,0,0,0,0,0,0,0,0,0,0,0,0,0,0,0,0,0,0,0,0,0,0,0,0,0,0,0,0,0,0,0,0,0,0,0,0,0,0,0,0,0,0,0,0,0,0,0,0,0,0,0,0,0,0,0,0,0],"sum_hessian":[1E3,2.93E2,7.07E2,7E0,2.86E2,4.79E2,2.28E2,6E0,1E0,1.76E2,1.1E2,4.09E2,7E1,2E2,2.8E1,1.69E2,7E0,3.5E1,7.5E1,2.97E2,1.12E2,5.8E1,1.2E1,3E0,1.97E2,2.4E1,4E0,5.5E1,1.14E2,3E0,4E0,2.8E1,7E0,2.5E1,5E1,2.77E2,2E1,3.4E1,7.8E1,4.7E1,1.1E1,7E0,5E0,1.58E2,3.9E1,2.3E1,1E0,2E0,2E0,4.5E1,1E1,3.6E1,7.8E1,2E0,2E0,1.3E1,1.5E1,2E0,5E0,1.1E1,1.4E1,3.7E1,1.3E1,1.81E2,9.6E1,3E0,1.7E1,1.6E1,1.8E1,5.6E1,2.2E1,4E1,7E0,9E0,2E0,5E0,2E0,2E0,3E0,3E1,1.28E2,4E0,3.5E1,1.9E1,4E0],"tree_param":{"num_deleted":"0","num_feature":"8","num_nodes":"85","size_leaf_vector":"1"}},{"base_weights":[-1.4810973E-4,-3.1366523E-2,3.10706E-2,-7.328769E-2,-1.782508E-2,1.1821273E-1,1.9838752E-2,-6.5777384E-2,-2.7839738E-1,7.286738E-2,-2.7236974E-2,1.5957311E-1,-1.5506624E-1,-3.8404877E-3,6.373068E-2,-1.5135859E-2,-9.122707E-2,-1.7489068E-2,-9.969957E-2,-7.7585295E-2,1.840281E-1,-1.7805074E-1,-2.0320226E-2,1.8470803E-1,-5.5534303E-2,6.2548794E-2,-2.3678884E-1,6.6940077E-3,-1.9741918E-1,-4.6726423E-3,1.02083266E-1,-8.276501E-2,2.3451945E-1,-1.9643167E-1,-4.9748998E-2,-1.7127645E-1,6.7342825E-2,-5.90188E-2,2.8518146E-1,-2.1464306E-1,5.0136246E-2,7.507017E-2,-3.1135505E-2,-1.1519178E-1,2.0133574E-1,-1.5875438E-1,6.908491E-2,-1.030441E-1,-7.090014E-2,-1.3619E-2,8.163539E-2,-4.0583745E-2,-1.11258596E-1,2.3607832E-1,-4.3099344E-2,1.3118367E-1,-1.452912E-1,-8.66014E-2,-1.0705902E-2,9.364998E-2,-7.4491086E-3,-2.1752344E-2,-8.8097766E-2,-2.945521E-2,1.2079302E-2,1.9883681E-2,-6.151075E-2,-6.268311E-3,3.2044973E-2,5.845837E-2,-5.9862915E-2,-2.206818E-2,9.481807E-2,-3.303494E-2,-8.378204E-2,-2.377887E-2,4.280347E-2,-8.7998256E-2,-7.971167E-3,-2.960694E-3,-4.8875608E-2,7.283894E-2,1.7595103E-2,-6.932999E-2,-1.0047197E-2,-2.8508449E-2,2.225876E-4,-6.7788973E-3,4.7211643E-2,1.1313096E-1,1.5987122E-2,-5.9506085E-2,9.848878E-3,8.8023834E-2,1.2815E-2,5.8572073E-2,-2.4011243E-2,4.9786244E-2,-1.2000588E-2,-9.654653E-2,1.6636372E-2],"categories":[],"categories_nodes":[],"categories_segments":[],"categories_sizes":[],"default_left":[0,0,0,0,0,0,0,0,0,0,0,0,0,0,0,0,0,0,0,0,0,0,0,0,0,0,0,0,0,0,0,0,0,0,0,0,0,0,0,0,0,0,0,0,0,0,0,0,0,0,0,0,0,0,0,0,0,0,0,0,0,0,0,0,0,0,0,0,0,0,0,0,0,0,0,0,0,0,0,0,0,0,0,0,0,0,0,0,0,0,0,0,0,0,0,0,0,0,0,0,0],"id":10,"left_children":[1,3,5,7,9,11,13,15,17,19,21,23,25,27,29,31,33,-1,-1,35,37,39,41,43,45,-1,47,49,51,53,55,57,59,61,63,65,67,69,71,73,-1,75,77,79,81,83,-1,-1,85,87,89,91,-1,93,95,97,99,-1,-1,-1,-1,-1,-1,-1,-1,-1,-1,-1,-1,-1,-1,-1,-1,-1,-1,-1,-1,-1,-1,-1,-1,-1,-1,-1,-1,-1,-1,-1,-1,-1,-1,-1,-1,-1,-1,-1,-1,-1,-1,-1,-1],"loss_changes":[9.765478E-1,2.8309786E-1,4.8801714E-1,1.6962099E-1,3.2634804E-1,6.6901094E-1,4.6274546E-1,1.5198767E-1,2.8110117E-2,6.1635727E-1,3.562656E-1,2.8059304E-1,2.8705952E-1,5.9270513E-1,4.0973437E-1,7.1165305E-1,3.349588E-1,0E0,0E0,2.2878999E-1,5.331162E-1,2.2533065E-1,3.4382138E-1,2.4759138E-1,2.1357095E-1,0E0,9.953958E-2,4.2126244E-1,3.929788E-1,5.37497E-1,7.389293E-1,3.0959356E-1,1.8899122E-1,2.4378115E-1,2.568216E-1,9.378672E-2,2.6613235E-2,2.8861728E-1,1.8941224E-1,6.3825786E-2,0E0,3.6607054E-1,3.4888038E-1,1.3472352E-2,2.4014091E-1,3.75717E-2,0E0,0E0,6.9848336E-3,3.3819535E-1,4.7403088E-1,1.1075358E-1,0E0,7.6156676E-2,4.558174E-1,5.423372E-1,4.0766189E-1,0E0,0E0,0E0,0E0,0E0,0E0,0E0,0E0,0E0,0E0,0E0,0E0,0E0,0E0,0E0,0E0,0E0,0E0,0E0,0E0,0E0,0E0,0E0,0E0,0E0,0E0,0E0,0E0,0E0,0E0,0E0,0E0,0E0,0E0,0E0,0E0,0E0,0E0,0E0,0E0,0E0,0E0,0E0,0E0],"parents":[2147483647,0,0,1,1,2,2,3,3,4,4,5,5,6,6,7,7,8,8,9,9,10,10,11,11,12,12,13,13,14,14,15,15,16,16,19,19,20,20,21,21,22,22,23,23,24,24,26,26,27,27,28,28,29,29,30,30,31,31,32,32,33,33,34,34,35,35,36,36,37,37,38,38,39,39,41,41,42,42,43,43,44,44,45,45,48,48,49,49,50,50,51,51,53,53,54,54,55,55,56,56],"right_children":[2,4,6,8,10,12,14,16,18,20,22,24,26,28,30,32,34,-1,-1,36,38,40,42,44,46,-1,48,50,52,54,56,58,60,62,64,66,68,70,72,74,-1,76,78,80,82,84,-1,-1,86,88,90,92,-1,94,96,98,100,-1,-1,-1,-1,-1,-1,-1,-1,-1,-1,-1,-1,-1,-1,-1,-1,-1,-1,-1,-1,-1,-1,-1,-1,-1,-1,-1,-1,-1,-1,-1,-1,-1,-1,-1,-1,-1,-1,-1,-1,-1,-1,-1,-1],"split_conditions":[5.125762E0,1.3347998E0,1.3401523E0,9.948663E0,8.813443E-1,9.291448E0,6.812821E0,3.287516E0,5.63755E-1,3.7111294E0,1.5124683E0,8.843434E0,6.4208937E-1,6.692003E0,3.7127092E0,6.464587E0,5.002785E0,-1.7489068E-2,-9.969957E-2,2.105285E0,1.6874944E0,8.589806E0,2.4165893E0,1.2611532E0,9.789811E0,6.2548794E-2,5.869365E0,8.070709E0,3.4519222E0,1.1974679E0,8.90215E0,2.4153683E0,1.0294615E0,5.339675E0,6.895342E0,8.74465E-1,2.0425646E0,5.0622475E-1,3.0652502E-1,3.587425E0,5.0136246E-2,2.5448134E0,2.4871428E0,8.785155E0,8.071555E0,9.305952E0,6.908491E-2,-1.030441E-1,6.295577E0,9.32504E0,5.182354E-1,9.808258E-1,-1.11258596E-1,4.55172E0,7.021461E0,8.082682E0,4.1607065E0,-8.66014E-2,-1.0705902E-2,9.364998E-2,-7.4491086E-3,-2.1752344E-2,-8.8097766E-2,-2.945521E-2,1.2079302E-2,1.9883681E-2,-6.151075E-2,-6.268311E-3,3.2044973E-2,5.845837E-2,-5.9862915E-2,-2.206818E-2,9.481807E-2,-3.303494E-2,-8.378204E-2,-2.377887E-2,4.280347E-2,-8.7998256E-2,-7.971167E-3,-2.960694E-3,-4.8875608E-2,7.283894E-2,1.7595103E-2,-6.932999E-2,-1.0047197E-2,-2.8508449E-2,2.225876E-4,-6.7788973E-3,4.7211643E-2,1.1313096E-1,1.5987122E-2,-5.9506085E-2,9.848878E-3,8.8023834E-2,1.2815E-2,5.8572073E-2,-2.4011243E-2,4.9786244E-2,-1.2000588E-2,-9.654653E-2,1.6636372E-2],"split_indices":[0,0,4,3,5,6,4,7,0,4,5,3,2,4,1,4,7,0,0,2,6,1,5,5,0,0,5,7,1,7,2,2,0,6,1,3,0,6,3,2,0,2,5,0,1,3,0,0,0,1,5,2,0,2,4,5,6,0,0,0,0,0,0,0,0,0,0,0,0,0,0,0,0,0,0,0,0,0,0,0,0,0,0,0,0,0,0,0,0,0,0,0,0,0,0,0,0,0,0,0,0],"split_type":[0,0,0,0,0,0,0,0,0,0,0,0,0,0,0,0,0,0,0,0,0,0,0,0,0,0,0,0,0,0,0,0,0,0,0,0,0,0,0,0,0,0,0,0,0,0,0,0,0,0,0,0,0,0,0,0,0,0,0,0,0,0,0,0,0,0,0,0,0,0,0,0,0,0,0,0,0,0,0,0,0,0,0,0,0,0,0,0,0,0,0,0,0,0,0,0,0,0,0,0,0],"sum_hessian":[1E3,5E2,5E2,1.21E2,3.79E2,5.6E1,4.44E2,1.18E2,3E0,3.5E1,3.44E2,4.9E1,7E0,2.89E2,1.55E2,4E1,7.8E1,1E0,2E0,1.5E1,2E1,1.4E1,3.3E2,4.4E1,5E0,1E0,6E0,2.75E2,1.4E1,5.6E1,9.9E1,3.2E1,8E0,2.1E1,5.7E1,9E0,6E0,6E0,1.4E1,1.3E1,1E0,3.3E1,2.97E2,2E0,4.2E1,4E0,1E0,3E0,3E0,2.17E2,5.8E1,8E0,6E0,7E0,4.9E1,8.9E1,1E1,5E0,2.7E1,6E0,2E0,1E1,1.1E1,3.7E1,2E1,1E0,8E0,2E0,4E0,2E0,4E0,1E0,1.3E1,6E0,7E0,1E1,2.3E1,4E0,2.93E2,1E0,1E0,3.2E1,1E1,2E0,2E0,2E0,1E0,2.07E2,1E1,4E0,5.4E1,2E0,6E0,5E0,2E0,6E0,4.3E1,7.4E1,1.5E1,5E0,5E0],"tree_param":{"num_deleted":"0","num_feature":"8","num_nodes":"101","size_leaf_vector":"1"}},{"base_weights":[-3.856321E-4,-2.2184802E-2,2.3132946E-2,-5.3838637E-2,-2.5534432E-3,1.0451761E-1,1.9682258E-2,-4.9317304E-2,-9.983801E-2,1.393234E-3,-2.5305143E-1,1.1977242E-2,1.03752755E-1,-3.0958593E-2,-1.20601274E-1,-7.130086E-3,2.019119E-1,-9.766092E-2,-2.886479E-2,4.7876677E-3,1.0983553E-1,2.0910762E-1,1.6790131E-2,-3.5449779E-3,-9.762772E-2,-2.6325113E-1,-5.7415083E-2,3.698326E-3,-1.3451803E-1,3.308234E-1,7.9989284E-2,1.8672245E-2,-9.331498E-2,1.0116589E-1,6.188337E-2,2.5802642E-1,-3.6448576E-2,2.3261678E-1,-2.7214706E-2,5.113722E-3,-5.3481195E-2,-8.838423E-3,-6.365353E-2,-8.687097E-2,3.9382833E-3,5.7616044E-2,-2.8075976E-2,-8.4114406E-4,6.058917E-2,-8.620793E-2,-1.2041148E-2,1.2010852E-1,-2.5302172E-3,-2.9964806E-3,3.3493955E-2,2.6438488E-3,2.4320848E-2,-8.943747E-3,-6.2423997E-2,-8.5694E-2,3.0823847E-2,4.0562052E-2,1.0918356E-1,8.0901675E-2,1.8217564E-2,-3.1363863E-2,1.366822E-2],"categories":[],"categories_nodes":[],"categories_segments":[],"categories_sizes":[],"default_left":[0,0,0,0,0,0,0,0,0,0,0,0,0,0,0,0,0,0,0,0,0,0,0,0,0,0,0,0,0,0,0,0,0,0,0,0,0,0,0,0,0,0,0,0,0,0,0,0,0,0,0,0,0,0,0,0,0,0,0,0,0,0,0,0,0,0,0],"id":11,"left_children":[1,3,5,7,9,-1,11,13,-1,15,17,19,21,23,25,27,29,-1,-1,31,33,35,37,39,41,43,45,47,49,51,53,55,57,-1,59,61,-1,63,65,-1,-1,-1,-1,-1,-1,-1,-1,-1,-1,-1,-1,-1,-1,-1,-1,-1,-1,-1,-1,-1,-1,-1,-1,-1,-1,-1,-1],"loss_changes":[5.137114E-1,3.2299462E-1,5.341238E-1,2.3457575E-1,3.1869292E-1,0E0,3.0838877E-1,2.5407663E-1,0E0,5.4492855E-1,2.5519282E-2,3.0833673E-1,3.6296654E-1,2.8842133E-1,3.4542543E-1,4.2259663E-1,1.7786163E-1,0E0,0E0,5.6020904E-1,3.0623838E-1,3.2245755E-1,2.2477119E-1,4.0958184E-1,3.529399E-1,9.108877E-2,2.7965957E-1,3.653958E-1,3.3467433E-1,1.4492506E-1,2.3902677E-2,2.2075768E-1,3.6547768E-1,0E0,3.9857617E-1,1.5893447E-1,0E0,9.102181E-3,1.1731989E-1,0E0,0E0,0E0,0E0,0E0,0E0,0E0,0E0,0E0,0E0,0E0,0E0,0E0,0E0,0E0,0E0,0E0,0E0,0E0,0E0,0E0,0E0,0E0,0E0,0E0,0E0,0E0,0E0],"parents":[2147483647,0,0,1,1,2,2,3,3,4,4,6,6,7,7,9,9,10,10,11,11,12,12,13,13,14,14,15,15,16,16,19,19,20,20,21,21,22,22,23,23,24,24,25,25,26,26,27,27,28,28,29,29,30,30,31,31,32,32,34,34,35,35,37,37,38,38],"right_children":[2,4,6,8,10,-1,12,14,-1,16,18,20,22,24,26,28,30,-1,-1,32,34,36,38,40,42,44,46,48,50,52,54,56,58,-1,60,62,-1,64,66,-1,-1,-1,-1,-1,-1,-1,-1,-1,-1,-1,-1,-1,-1,-1,-1,-1,-1,-1,-1,-1,-1,-1,-1,-1,-1,-1,-1],"split_conditions":[5.3995714E0,3.7127092E0,1.1031264E-1,3.6830952E0,9.948663E0,1.0451761E-1,9.000832E0,8.352441E0,-9.983801E-2,9.650154E0,4.826012E0,9.4064E0,9.405373E0,6.9287844E0,8.779743E0,9.148459E0,9.811862E0,-9.766092E-2,-2.886479E-2,8.264647E0,9.483696E0,8.727303E0,7.787899E-1,9.590241E0,5.814249E0,9.730782E0,1.9668856E0,8.865954E0,3.063135E0,4.59346E0,1.3935608E0,9.336789E0,6.00912E0,1.0116589E-1,9.623381E0,4.8340745E0,-3.6448576E-2,8.1025915E0,5.526623E0,5.113722E-3,-5.3481195E-2,-8.838423E-3,-6.365353E-2,-8.687097E-2,3.9382833E-3,5.7616044E-2,-2.8075976E-2,-8.4114406E-4,6.058917E-2,-8.620793E-2,-1.2041148E-2,1.2010852E-1,-2.5302172E-3,-2.9964806E-3,3.3493955E-2,2.6438488E-3,2.4320848E-2,-8.943747E-3,-6.2423997E-2,-8.5694E-2,3.0823847E-2,4.0562052E-2,1.0918356E-1,8.0901675E-2,1.8217564E-2,-3.1363863E-2,1.366822E-2],"split_indices":[0,1,7,1,3,0,1,7,0,3,4,5,1,3,7,4,3,0,0,5,5,2,6,6,5,2,3,4,0,0,2,0,2,0,5,6,0,0,5,0,0,0,0,0,0,0,0,0,0,0,0,0,0,0,0,0,0,0,0,0,0,0,0,0,0,0,0],"split_type":[0,0,0,0,0,0,0,0,0,0,0,0,0,0,0,0,0,0,0,0,0,0,0,0,0,0,0,0,0,0,0,0,0,0,0,0,0,0,0,0,0,0,0,0,0,0,0,0,0,0,0,0,0,0,0,0,0,0,0,0,0,0,0,0,0,0,0],"sum_hessian":[1E3,5.19E2,4.81E2,1.98E2,3.21E2,4E0,4.77E2,1.96E2,2E0,3.17E2,4E0,4.38E2,3.9E1,1.57E2,3.9E1,3.05E2,1.2E1,2E0,2E0,4.09E2,2.9E1,1.7E1,2.2E1,1.12E2,4.5E1,1.1E1,2.8E1,2.82E2,2.3E1,5E0,7E0,3.59E2,5E1,4E0,2.5E1,1.5E1,2E0,3E0,1.9E1,1.01E2,1.1E1,2.9E1,1.6E1,1E1,1E0,3E0,2.5E1,2.74E2,8E0,8E0,1.5E1,4E0,1E0,2E0,5E0,3.11E2,4.8E1,3.3E1,1.7E1,2E0,2.3E1,8E0,7E0,2E0,1E0,9E0,1E1],"tree_param":{"num_deleted":"0","num_feature":"8","num_nodes":"67","size_leaf_vector":"1"}},{"base_weights":[-2.598705E-4,-3.6792155E-2,8.455817E-3,-4.0369894E-2,9.752001E-2,-3.348263E-2,2.2652388E-2,-9.39079E-3,-8.8572085E-2,-2.0902533E-2,-1.91437E-1,4.480739E-2,-7.117641E-3,-2.6587376E-2,1.0189915E-1,7.6193616E-2,-1.1509286E-1,-1.01278834E-1,-1.5765056E-2,-2.4602805E-1,1.0893655E-1,5.14892E-2,-1.855186E-1,1.5019748E-1,-2.0910528E-2,-5.398694E-2,4.873242E-2,-1.20781526E-1,1.8619117E-1,-2.2146009E-2,1.4167623E-1,-2.112254E-1,-6.4410836E-2,8.008213E-2,-3.2931536E-2,2.22417E-2,-2.7888688E-1,3.917016E-2,9.851289E-3,2.3629999E-2,8.9313775E-2,-2.1679015E-1,-1.2086463E-2,-8.2199655E-2,1.7898664E-1,-4.10366E-2,1.0596847E-1,5.895542E-4,-5.7423986E-2,-2.3426224E-2,2.8417243E-2,-2.943969E-3,-5.74468E-2,8.718684E-2,2.102388E-2,5.084707E-2,-7.953251E-3,-3.384546E-2,-1.364525E-1,-4.1277446E-2,9.085654E-3,5.0820913E-2,-9.2363433E-4,-1.8967822E-3,-2.8086876E-2,-3.988859E-2,-1.00568734E-1,8.471995E-3,-8.4707685E-2,1.0209965E-1,2.2750828E-2,-6.890183E-2,-1.8991793E-2,-3.407668E-2,-2.9131651E-3,-9.291164E-3,6.6086784E-2,-3.6446214E-2,-4.9934657E-3,4.3717567E-2,-1.875521E-2],"categories":[],"categories_nodes":[],"categories_segments":[],"categories_sizes":[],"default_left":[0,0,0,0,0,0,0,0,0,0,0,0,0,0,0,0,0,0,0,0,0,0,0,0,0,0,0,0,0,0,0,0,0,0,0,0,0,0,0,0,0,0,0,0,0,0,0,0,0,0,0,0,0,0,0,0,0,0,0,0,0,0,0,0,0,0,0,0,0,0,0,0,0,0,0,0,0,0,0,0,0],"id":12,"left_children":[1,3,5,7,-1,9,11,13,15,17,19,21,23,25,27,29,31,-1,33,35,37,39,41,43,45,47,49,51,53,-1,55,57,59,61,63,-1,65,-1,-1,67,69,71,-1,73,75,77,79,-1,-1,-1,-1,-1,-1,-1,-1,-1,-1,-1,-1,-1,-1,-1,-1,-1,-1,-1,-1,-1,-1,-1,-1,-1,-1,-1,-1,-1,-1,-1,-1,-1,-1],"loss_changes":[3.190335E-1,2.6298764E-1,4.824226E-1,2.8587428E-1,0E0,4.033501E-1,3.993497E-1,2.2853845E-1,3.364979E-1,3.054359E-1,2.7276707E-1,5.4358345E-1,5.6512666E-1,2.1519506E-1,3.2281172E-1,1.18514694E-1,3.030873E-1,0E0,3.1361008E-1,1.5744048E-1,6.50689E-4,3.5406113E-1,3.668174E-2,1.5521348E-1,6.146531E-1,5.847627E-1,1.7071134E-1,3.7352487E-2,1.2514195E-1,0E0,4.1916937E-2,4.7610456E-1,3.0908442E-1,2.159338E-1,2.5941223E-1,0E0,5.4088116E-2,0E0,0E0,2.844522E-1,4.579805E-1,1.2785494E-3,0E0,5.72313E-3,1.7158633E-1,4.0418065E-1,2.3015922E-1,0E0,0E0,0E0,0E0,0E0,0E0,0E0,0E0,0E0,0E0,0E0,0E0,0E0,0E0,0E0,0E0,0E0,0E0,0E0,0E0,0E0,0E0,0E0,0E0,0E0,0E0,0E0,0E0,0E0,0E0,0E0,0E0,0E0,0E0],"parents":[2147483647,0,0,1,1,2,2,3,3,5,5,6,6,7,7,8,8,9,9,10,10,11,11,12,12,13,13,14,14,15,15,16,16,18,18,19,19,20,20,21,21,22,22,23,23,24,24,25,25,26,26,27,27,28,28,30,30,31,31,32,32,33,33,34,34,36,36,39,39,40,40,41,41,43,43,44,44,45,45,46,46],"right_children":[2,4,6,8,-1,10,12,14,16,18,20,22,24,26,28,30,32,-1,34,36,38,40,42,44,46,48,50,52,54,-1,56,58,60,62,64,-1,66,-1,-1,68,70,72,-1,74,76,78,80,-1,-1,-1,-1,-1,-1,-1,-1,-1,-1,-1,-1,-1,-1,-1,-1,-1,-1,-1,-1,-1,-1,-1,-1,-1,-1,-1,-1,-1,-1,-1,-1,-1,-1],"split_conditions":[1.6080805E0,9.911686E0,2.2665641E0,6.347441E0,9.752001E-2,2.0883093E0,6.5229163E0,8.952068E0,1.6122129E0,1.69128E-1,7.7851586E0,9.725682E0,8.00634E-1,6.877692E0,9.2066985E-1,2.177808E0,4.929827E0,-1.01278834E-1,1.3401523E0,1.068007E0,2.5349376E0,5.993597E0,9.945642E0,1.400241E0,8.960913E0,5.2745647E0,2.3073459E0,1.7537128E0,3.2302735E0,-2.2146009E-2,7.317053E0,8.980543E0,8.295658E0,5.1624784E0,6.8386645E0,2.22417E-2,5.298756E0,3.917016E-2,9.851289E-3,5.9346137E0,2.4584744E0,8.15947E0,-1.2086463E-2,5.5270705E0,1.696913E-1,3.2518332E0,8.0517435E0,5.895542E-4,-5.7423986E-2,-2.3426224E-2,2.8417243E-2,-2.943969E-3,-5.74468E-2,8.718684E-2,2.102388E-2,5.084707E-2,-7.953251E-3,-3.384546E-2,-1.364525E-1,-4.1277446E-2,9.085654E-3,5.0820913E-2,-9.2363433E-4,-1.8967822E-3,-2.8086876E-2,-3.988859E-2,-1.00568734E-1,8.471995E-3,-8.4707685E-2,1.0209965E-1,2.2750828E-2,-6.890183E-2,-1.8991793E-2,-3.407668E-2,-2.9131651E-3,-9.291164E-3,6.6086784E-2,-3.6446214E-2,-4.9934657E-3,4.3717567E-2,-1.875521E-2],"split_indices":[1,0,2,5,0,2,2,7,7,0,7,1,5,2,5,3,7,0,4,6,0,6,1,4,1,2,6,0,6,0,2,5,5,6,7,0,1,0,0,6,2,3,0,0,5,5,3,0,0,0,0,0,0,0,0,0,0,0,0,0,0,0,0,0,0,0,0,0,0,0,0,0,0,0,0,0,0,0,0,0,0],"split_type":[0,0,0,0,0,0,0,0,0,0,0,0,0,0,0,0,0,0,0,0,0,0,0,0,0,0,0,0,0,0,0,0,0,0,0,0,0,0,0,0,0,0,0,0,0,0,0,0,0,0,0,0,0,0,0,0,0,0,0,0,0,0,0,0,0,0,0,0,0,0,0,0,0,0,0,0,0,0,0,0,0],"sum_hessian":[1E3,1.92E2,8.08E2,1.91E2,1E0,2.04E2,6.04E2,1.17E2,7.4E1,1.9E2,1.4E1,3.46E2,2.58E2,1.02E2,1.5E1,1E1,6.4E1,2E0,1.88E2,1.2E1,2E0,3.37E2,9E0,2E1,2.38E2,7.5E1,2.7E1,4E0,1.1E1,3E0,7E0,2.1E1,4.3E1,2.8E1,1.6E2,1E0,1.1E1,1E0,1E0,1.95E2,1.42E2,7E0,2E0,2E0,1.8E1,2.06E2,3.2E1,5.4E1,2.1E1,7E0,2E1,2E0,2E0,5E0,6E0,6E0,1E0,1.6E1,5E0,2.4E1,1.9E1,1.3E1,1.5E1,1.12E2,4.8E1,4E0,7E0,1.93E2,2E0,6E0,1.36E2,6E0,1E0,1E0,1E0,3E0,1.5E1,4.7E1,1.59E2,2.6E1,6E0],"tree_param":{"num_deleted":"0","num_feature":"8","num_nodes":"81","size_leaf_vector":"1"}},{"base_weights":[-4.6846256E-4,-1.683975E-2,1.719448E-2,-8.479122E-2,-1.5267872E-2,7.543093E-2,1.4708279E-2,-3.7694458E-2,-1.0445671E-3,-1.15619175E-1,1.9180268E-2,-2.5390916E-2,-1.8856564E-1,7.4551636E-3,-1.1038699E-1,-8.540701E-2,8.903794E-2,5.510302E-2,1.6618658E-2,-3.7369132E-2,8.914731E-2,-2.654263E-1,-1.0783337E-1,1.09347515E-1,-6.184865E-3,-3.0587846E-1,-5.742073E-3,-1.1204183E-2,1.373909E-1,6.8516865E-2,9.786007E-3,-2.7271943E-2,-1.2561281E-3,3.609509E-2,-6.611054E-2,-8.573656E-2,-2.1487964E-2,-7.534027E-4,-4.1269984E-2,1.7453173E-2,8.243251E-2,1.3854316E-2,-7.881556E-3,-1.1001244E-1,-2.4677873E-2,-3.878301E-2,4.0185638E-2,6.472676E-2,1.3280833E-2,-3.3085268E-2,3.0826347E-2,7.4352184E-4,3.9314397E-2],"categories":[],"categories_nodes":[],"categories_segments":[],"categories_sizes":[],"default_left":[0,0,0,0,0,0,0,0,0,0,0,0,0,0,0,0,0,0,0,0,0,0,0,0,0,0,0,0,0,0,0,0,0,0,0,0,0,0,0,0,0,0,0,0,0,0,0,0,0,0,0,0,0],"id":13,"left_children":[1,3,5,-1,7,-1,9,11,13,15,17,19,21,23,25,-1,27,-1,29,31,33,35,37,39,41,43,45,-1,47,49,51,-1,-1,-1,-1,-1,-1,-1,-1,-1,-1,-1,-1,-1,-1,-1,-1,-1,-1,-1,-1,-1,-1],"loss_changes":[2.8974384E-1,2.1294145E-1,2.7700537E-1,0E0,1.6519234E-1,0E0,2.80807E-1,3.6831835E-1,2.9636613E-1,5.7897305E-1,1.9204445E-1,2.598886E-1,6.445521E-2,4.120614E-1,4.6875897E-1,0E0,5.4019965E-2,0E0,1.6138278E-1,3.0162063E-1,2.0016906E-1,7.1533024E-3,2.7838625E-2,2.8028837E-1,2.768041E-1,7.865608E-2,2.9343E-1,0E0,3.4233354E-2,3.357836E-1,3.5855955E-1,0E0,0E0,0E0,0E0,0E0,0E0,0E0,0E0,0E0,0E0,0E0,0E0,0E0,0E0,0E0,0E0,0E0,0E0,0E0,0E0,0E0,0E0],"parents":[2147483647,0,0,1,1,2,2,4,4,6,6,7,7,8,8,9,9,10,10,11,11,12,12,13,13,14,14,16,16,18,18,19,19,20,20,21,21,22,22,23,23,24,24,25,25,26,26,28,28,29,29,30,30],"right_children":[2,4,6,-1,8,-1,10,12,14,16,18,20,22,24,26,-1,28,-1,30,32,34,36,38,40,42,44,46,-1,48,50,52,-1,-1,-1,-1,-1,-1,-1,-1,-1,-1,-1,-1,-1,-1,-1,-1,-1,-1,-1,-1,-1,-1],"split_conditions":[5.3995714E0,5.864728E-2,1.1031264E-1,-8.479122E-2,3.8383296E0,7.543093E-2,3.9391834E-1,3.6734052E0,9.032736E0,6.0053477E0,5.3434604E-1,8.952068E0,4.427359E0,1.2804583E0,3.2302735E0,-8.540701E-2,7.021461E0,5.510302E-2,1.3401523E0,3.1098232E0,8.824951E0,8.358259E0,2.3877714E0,5.9614263E0,5.2725515E0,9.461869E0,1.7182946E0,-1.1204183E-2,7.8891397E0,3.1429186E-1,9.348221E0,-2.7271943E-2,-1.2561281E-3,3.609509E-2,-6.611054E-2,-8.573656E-2,-2.1487964E-2,-7.534027E-4,-4.1269984E-2,1.7453173E-2,8.243251E-2,1.3854316E-2,-7.881556E-3,-1.1001244E-1,-2.4677873E-2,-3.878301E-2,4.0185638E-2,6.472676E-2,1.3280833E-2,-3.3085268E-2,3.0826347E-2,7.4352184E-4,3.9314397E-2],"split_indices":[0,3,7,0,3,0,7,3,5,4,7,7,6,4,6,0,4,0,4,4,4,1,2,2,3,5,4,0,0,4,6,0,0,0,0,0,0,0,0,0,0,0,0,0,0,0,0,0,0,0,0,0,0],"split_type":[0,0,0,0,0,0,0,0,0,0,0,0,0,0,0,0,0,0,0,0,0,0,0,0,0,0,0,0,0,0,0,0,0,0,0,0,0,0,0,0,0,0,0,0,0,0,0,0,0,0,0,0,0],"sum_hessian":[1E3,5.19E2,4.81E2,2E0,5.17E2,4E0,4.77E2,2E2,3.17E2,1.5E1,4.62E2,1.86E2,1.4E1,2.95E2,2.2E1,8E0,7E0,6E0,4.56E2,1.69E2,1.7E1,6E0,8E0,3.4E1,2.61E2,7E0,1.5E1,2E0,5E0,5.2E1,4.04E2,6.4E1,1.05E2,1.6E1,1E0,5E0,1E0,2E0,6E0,2.7E1,7E0,7.2E1,1.89E2,5E0,2E0,8E0,7E0,2E0,3E0,8E0,4.4E1,3.82E2,2.2E1],"tree_param":{"num_deleted":"0","num_feature":"8","num_nodes":"53","size_leaf_vector":"1"}},{"base_weights":[-4.980497E-4,9.4460346E-2,-2.9273862E-3,-1.5647411E-1,1.4970854E-1,-3.542748E-2,3.9628786E-3,-1.1964316E-2,-5.2695636E-2,3.321237E-2,2.1884368E-1,-7.027616E-2,1.5024153E-3,-2.6241891E-2,1.4631628E-2,-3.7343904E-2,9.605005E-2,1.216329E-1,1.0501631E-1,-4.4773992E-2,-1.8223755E-1,-2.1383345E-2,7.117795E-2,-1.6217263E-1,-1.5758628E-2,8.98348E-2,7.593249E-3,3.7021074E-2,-1.021067E-2,6.418955E-2,6.4685784E-2,-1.7037384E-1,-2.2133162E-2,-7.4612856E-2,-1.0475297E-1,6.970504E-2,-5.0690096E-2,-4.9246505E-2,1.1951984E-1,-4.5964956E-2,-2.345372E-1,2.6426397E-2,-6.1330196E-2,-4.1625734E-2,1.6280194E-1,-3.463685E-2,2.0184243E-2,2.326082E-2,-1.862383E-3,5.0551887E-3,-7.2806805E-2,3.2958806E-2,-1.5650433E-2,1.4211354E-2,-5.5248428E-2,7.198078E-2,3.589313E-3,-5.3689624E-3,-4.5093656E-2,4.9069043E-2,-2.265713E-2,-3.1305816E-2,2.0000886E-2,-8.057474E-2,5.6737307E-3,3.0300668E-2,-2.5823433E-3,-2.5376828E-2,1.5109335E-2,1.4079374E-2,-6.004265E-2,-6.572485E-5,6.718319E-2,-3.0951768E-2,-8.18417E-4,6.510653E-2,4.7569238E-3],"categories":[],"categories_nodes":[],"categories_segments":[],"categories_sizes":[],"default_left":[0,0,0,0,0,0,0,0,0,0,0,0,0,0,0,0,0,0,0,0,0,0,0,0,0,0,0,0,0,0,0,0,0,0,0,0,0,0,0,0,0,0,0,0,0,0,0,0,0,0,0,0,0,0,0,0,0,0,0,0,0,0,0,0,0,0,0,0,0,0,0,0,0,0,0,0,0],"id":14,"left_children":[1,3,5,7,9,11,13,-1,-1,15,17,19,21,23,25,-1,27,29,-1,31,33,35,37,39,41,43,45,-1,-1,-1,47,49,51,53,-1,55,57,-1,59,61,63,65,67,69,71,73,75,-1,-1,-1,-1,-1,-1,-1,-1,-1,-1,-1,-1,-1,-1,-1,-1,-1,-1,-1,-1,-1,-1,-1,-1,-1,-1,-1,-1,-1,-1],"loss_changes":[2.3119311E-1,3.7001732E-1,2.1892418E-1,4.174918E-3,1.6186523E-1,2.2017542E-1,2.6043737E-1,0E0,0E0,1.01137295E-1,1.2323815E-1,2.4310318E-1,1.3546656E-1,2.981189E-1,3.15315E-1,0E0,2.9108219E-2,3.3481985E-2,0E0,2.0381811E-1,2.6141512E-1,1.7438166E-1,2.5852498E-1,1.1535925E-1,3.8034096E-1,4.95984E-1,2.9154938E-1,0E0,0E0,0E0,6.8583693E-3,1.5302101E-1,2.5549406E-1,1.5571888E-1,0E0,1.5439725E-1,1.5739112E-1,0E0,1.6698065E-1,5.2992515E-2,8.273843E-2,2.6997805E-1,2.510637E-1,2.7610987E-1,3.289743E-1,2.752669E-1,3.5605192E-1,0E0,0E0,0E0,0E0,0E0,0E0,0E0,0E0,0E0,0E0,0E0,0E0,0E0,0E0,0E0,0E0,0E0,0E0,0E0,0E0,0E0,0E0,0E0,0E0,0E0,0E0,0E0,0E0,0E0,0E0],"parents":[2147483647,0,0,1,1,2,2,3,3,4,4,5,5,6,6,9,9,10,10,11,11,12,12,13,13,14,14,16,16,17,17,19,19,20,20,21,21,22,22,23,23,24,24,25,25,26,26,30,30,31,31,32,32,33,33,35,35,36,36,38,38,39,39,40,40,41,41,42,42,43,43,44,44,45,45,46,46],"right_children":[2,4,6,8,10,12,14,-1,-1,16,18,20,22,24,26,-1,28,30,-1,32,34,36,38,40,42,44,46,-1,-1,-1,48,50,52,54,-1,56,58,-1,60,62,64,66,68,70,72,74,76,-1,-1,-1,-1,-1,-1,-1,-1,-1,-1,-1,-1,-1,-1,-1,-1,-1,-1,-1,-1,-1,-1,-1,-1,-1,-1,-1,-1,-1,-1],"split_conditions":[2.709599E-1,7.463141E-2,1.8181765E0,4.187933E0,2.1296415E0,5.105808E0,2.2665641E0,-1.1964316E-2,-5.2695636E-2,1.5004866E0,1.9401246E-1,8.597947E0,1.4643626E0,9.804454E-1,3.0321956E0,-3.7343904E-2,6.6703687E0,2.9087687E0,1.0501631E-1,1.1586906E0,2.1296415E0,4.1497326E-1,2.2267609E0,7.2376394E-1,5.590593E0,3.0490313E0,2.3290184E0,3.7021074E-2,-1.021067E-2,6.418955E-2,7.643727E0,4.5585158E-1,2.3818278E0,4.181448E0,-1.0475297E-1,1.400241E0,6.2296658E0,-4.9246505E-2,8.808707E0,3.900642E-1,1.709364E0,2.9712172E0,8.481092E0,6.9561815E0,1.8180846E0,5.046373E0,2.403989E0,2.326082E-2,-1.862383E-3,5.0551887E-3,-7.2806805E-2,3.2958806E-2,-1.5650433E-2,1.4211354E-2,-5.5248428E-2,7.198078E-2,3.589313E-3,-5.3689624E-3,-4.5093656E-2,4.9069043E-2,-2.265713E-2,-3.1305816E-2,2.0000886E-2,-8.057474E-2,5.6737307E-3,3.0300668E-2,-2.5823433E-3,-2.5376828E-2,1.5109335E-2,1.4079374E-2,-6.004265E-2,-6.572485E-5,6.718319E-2,-3.0951768E-2,-8.18417E-4,6.510653E-2,4.7569238E-3],"split_indices":[6,6,0,0,1,1,2,0,0,4,6,7,0,6,2,0,4,2,0,7,1,0,5,2,6,5,3,0,0,0,3,1,7,3,0,4,2,0,5,2,2,7,7,0,1,2,3,0,0,0,0,0,0,0,0,0,0,0,0,0,0,0,0,0,0,0,0,0,0,0,0,0,0,0,0,0,0],"split_type":[0,0,0,0,0,0,0,0,0,0,0,0,0,0,0,0,0,0,0,0,0,0,0,0,0,0,0,0,0,0,0,0,0,0,0,0,0,0,0,0,0,0,0,0,0,0,0,0,0,0,0,0,0,0,0,0,0,0,0,0,0,0,0,0,0,0,0,0,0,0,0,0,0,0,0,0,0],"sum_hessian":[1E3,2.4E1,9.76E2,4E0,2E1,1.7E2,8.06E2,1E0,3E0,8E0,1.2E1,8.7E1,8.3E1,2.1E2,5.96E2,2E0,6E0,8E0,4E0,7.2E1,1.5E1,6.3E1,2E1,1.4E1,1.96E2,5E1,5.46E2,5E0,1E0,2E0,6E0,1E1,6.2E1,1E1,5E0,1.5E1,4.8E1,3E0,1.7E1,6E0,8E0,1.02E2,9.4E1,1.8E1,3.2E1,1.25E2,4.21E2,5E0,1E0,3E0,7E0,1.1E1,5.1E1,5E0,5E0,3E0,1.2E1,3.7E1,1.1E1,1.4E1,3E0,4E0,2E0,7E0,1E0,3.2E1,7E1,7.8E1,1.6E1,1.2E1,6E0,9E0,2.3E1,3.9E1,8.6E1,8E0,4.13E2],"tree_param":{"num_deleted":"0","num_feature":"8","num_nodes":"77","size_leaf_vector":"1"}},{"base_weights":[-4.3660312E-4,-1.7957366E-1,4.622152E-4,-7.1317796E-3,-6.3774236E-2,1.2742582E-1,-1.2139158E-3,1.7424798E-1,-2.1486044E-2,-1.1970206E-2,1.2697041E-2,5.8503866E-2,2.4166007E-1,-9.524203E-3,1.3946772E-3,-4.995256E-2,-3.429173E-3,7.192869E-2,-1.8907826E-3,-7.2103743E-3,3.6462307E-2,2.6174146E-1,2.1187985E-2,-3.6166057E-2,-3.101775E-1,-6.935084E-2,4.6977047E-3,2.8000271E-2,1.5153077E-1,-9.830771E-3,1.1004169E-1,2.2924878E-2,8.6690605E-2,-1.8266065E-2,1.7212901E-2,-1.2644518E-2,-1.4244424E-1,-5.4640904E-2,-6.129139E-3,7.004076E-3,-1.0796538E-2,-1.0389161E-2,2.1810437E-2,5.126646E-2,-6.147516E-2,2.7417025E-4,-3.3424422E-2,6.418038E-2,4.1002724E-3],"categories":[],"categories_nodes":[],"categories_segments":[],"categories_sizes":[],"default_left":[0,0,0,0,0,0,0,0,0,0,0,0,0,0,0,0,0,0,0,0,0,0,0,0,0,0,0,0,0,0,0,0,0,0,0,0,0,0,0,0,0,0,0,0,0,0,0,0,0],"id":15,"left_children":[1,3,5,-1,-1,7,9,11,13,15,17,19,21,-1,-1,23,25,27,29,-1,-1,31,-1,33,35,37,39,41,43,45,47,-1,-1,-1,-1,-1,-1,-1,-1,-1,-1,-1,-1,-1,-1,-1,-1,-1,-1],"loss_changes":[1.6125567E-1,2.0659119E-2,2.123239E-1,0E0,0E0,9.438479E-2,1.4753783E-1,6.388748E-2,1.2203057E-3,1.8019985E-1,3.716822E-1,2.8936133E-2,2.1216273E-3,0E0,0E0,3.5471645E-1,2.4408627E-1,2.9298455E-1,3.0858672E-1,0E0,0E0,3.1475127E-3,0E0,2.3011307E-1,2.0062438E-1,2.721543E-1,3.088988E-1,1.5929928E-1,2.420153E-1,3.5374337E-1,2.2736552E-1,0E0,0E0,0E0,0E0,0E0,0E0,0E0,0E0,0E0,0E0,0E0,0E0,0E0,0E0,0E0,0E0,0E0,0E0],"parents":[2147483647,0,0,1,1,2,2,5,5,6,6,7,7,8,8,9,9,10,10,11,11,12,12,15,15,16,16,17,17,18,18,21,21,23,23,24,24,25,25,26,26,27,27,28,28,29,29,30,30],"right_children":[2,4,6,-1,-1,8,10,12,14,16,18,20,22,-1,-1,24,26,28,30,-1,-1,32,-1,34,36,38,40,42,44,46,48,-1,-1,-1,-1,-1,-1,-1,-1,-1,-1,-1,-1,-1,-1,-1,-1,-1,-1],"split_conditions":[5.864728E-2,6.325341E-1,1.658783E-1,-7.1317796E-3,-6.3774236E-2,5.661807E0,5.355425E0,1.4745392E0,8.869249E0,1.9343535E0,2.1603143E0,6.812821E0,7.060581E0,-9.524203E-3,1.3946772E-3,1.9110563E0,1.3071733E0,5.857783E0,9.327529E0,-7.2103743E-3,3.6462307E-2,2.5990498E0,2.1187985E-2,7.9606853E0,3.4519222E0,3.430267E0,7.284907E0,4.045195E0,9.7852545E0,8.561536E0,8.40703E0,2.2924878E-2,8.6690605E-2,-1.8266065E-2,1.7212901E-2,-1.2644518E-2,-1.4244424E-1,-5.4640904E-2,-6.129139E-3,7.004076E-3,-1.0796538E-2,-1.0389161E-2,2.1810437E-2,5.126646E-2,-6.147516E-2,2.7417025E-4,-3.3424422E-2,6.418038E-2,4.1002724E-3],"split_indices":[3,1,3,0,0,7,1,6,0,5,5,4,0,0,0,5,3,0,6,0,0,0,0,3,1,7,3,3,3,6,1,0,0,0,0,0,0,0,0,0,0,0,0,0,0,0,0,0,0],"split_type":[0,0,0,0,0,0,0,0,0,0,0,0,0,0,0,0,0,0,0,0,0,0,0,0,0,0,0,0,0,0,0,0,0,0,0,0,0,0,0,0,0,0,0,0,0,0,0,0,0],"sum_hessian":[1E3,4E0,9.96E2,1E0,3E0,1.2E1,9.84E2,9E0,3E0,5.55E2,4.29E2,4E0,5E0,2E0,1E0,1.01E2,4.54E2,8.4E1,3.45E2,2E0,2E0,4E0,1E0,9.7E1,4E0,4.9E1,4.05E2,5.5E1,2.9E1,3.23E2,2.2E1,1E0,3E0,7.7E1,2E1,2E0,2E0,1.4E1,3.5E1,2.78E2,1.27E2,2.3E1,3.2E1,2.8E1,1E0,2.93E2,3E1,1E1,1.2E1],"tree_param":{"num_deleted":"0","num_feature":"8","num_nodes":"49","size_leaf_vector":"1"}},{"base_weights":[-4.0886298E-4,5.1874623E-2,-3.0390501E-3,1.3755752E-1,-1.4240208E-2,-1.5322494E-3,-1.3207367E-1,2.7625786E-2,2.0308276E-1,-1.6627814E-1,6.652924E-2,-4.2269486E-3,7.539877E-2,-2.2300637E-1,-4.8254088E-2,8.899341E-2,-7.13321E-2,2.6874024E-1,-1.1831641E-2,-6.6514395E-2,3.697856E-2,2.3190808E-1,-9.099498E-3,-1.1691609E-1,-2.7230722E-3,-1.0458819E-1,1.20956846E-1,-7.593167E-2,-1.5391446E-2,1.9765943E-3,-6.874168E-2,-2.8905452E-3,3.3193845E-2,-6.2641627E-3,-3.3403017E-2,3.179667E-1,-2.61447E-2,-1.9013215E-2,2.6476065E-2,2.573848E-2,-9.098125E-3,1.0028223E-1,1.8117389E-2,9.538004E-2,-1.2720476E-1,2.7001495E-2,-2.2357173E-1,-6.3534863E-3,4.9256466E-2,-6.949139E-2,-7.440686E-3,1.0707545E-1,6.183124E-2,-4.0189507E-3,4.9084183E-3,-8.928025E-3,-2.5442816E-2,4.1145097E-2,1.1565495E-1,1.2062002E-2,-1.4777185E-4,-5.4431856E-3,1.359601E-2,4.760734E-2,-2.2811473E-3,-5.3472627E-2,-1.3309873E-2,2.8084133E-2,-2.1244613E-2,-7.511168E-2,-9.415269E-3,-3.151799E-2,-1.222592E-3,-2.7373699E-3,3.1798683E-2,-2.5009694E-2,2.1289349E-2,-4.1817464E-3,3.784045E-2],"categories":[],"categories_nodes":[],"categories_segments":[],"categories_sizes":[],"default_left":[0,0,0,0,0,0,0,0,0,0,0,0,0,0,0,0,0,0,0,0,0,0,0,0,0,0,0,0,0,0,0,0,0,0,0,0,0,0,0,0,0,0,0,0,0,0,0,0,0,0,0,0,0,0,0,0,0,0,0,0,0,0,0,0,0,0,0,0,0,0,0,0,0,0,0,0,0,0,0],"id":16,"left_children":[1,3,5,7,9,11,13,15,17,19,21,23,25,27,29,31,33,35,37,-1,39,41,43,45,47,49,51,-1,-1,53,55,-1,-1,-1,-1,57,-1,-1,59,-1,-1,-1,61,63,65,67,69,71,73,-1,75,-1,77,-1,-1,-1,-1,-1,-1,-1,-1,-1,-1,-1,-1,-1,-1,-1,-1,-1,-1,-1,-1,-1,-1,-1,-1,-1,-1],"loss_changes":[1.3781053E-1,2.7387452E-1,1.8528335E-1,1.4565903E-1,3.549029E-1,1.9601555E-1,7.308036E-2,6.1003376E-2,1.8661922E-1,1.2087706E-1,2.3975074E-1,1.5440826E-1,2.750461E-1,1.2854859E-2,7.3396135E-3,1.3879564E-2,5.749617E-3,2.0290208E-1,9.576379E-3,0E0,1.2458761E-2,1.2525323E-1,1.8488695E-1,1.9023223E-1,1.7052688E-1,8.4674425E-2,3.4066653E-1,0E0,0E0,8.826021E-4,6.077904E-4,0E0,0E0,0E0,0E0,5.7053387E-2,0E0,0E0,1.1306917E-3,0E0,0E0,0E0,3.7814977E-3,5.3366818E-2,2.1687075E-2,4.572412E-2,2.8197318E-2,1.8936305E-1,1.9640405E-1,0E0,3.5680547E-2,0E0,1.08949E-1,0E0,0E0,0E0,0E0,0E0,0E0,0E0,0E0,0E0,0E0,0E0,0E0,0E0,0E0,0E0,0E0,0E0,0E0,0E0,0E0,0E0,0E0,0E0,0E0,0E0,0E0],"parents":[2147483647,0,0,1,1,2,2,3,3,4,4,5,5,6,6,7,7,8,8,9,9,10,10,11,11,12,12,13,13,14,14,15,15,16,16,17,17,18,18,20,20,21,21,22,22,23,23,24,24,25,25,26,26,29,29,30,30,35,35,38,38,42,42,43,43,44,44,45,45,46,46,47,47,48,48,50,50,52,52],"right_children":[2,4,6,8,10,12,14,16,18,20,22,24,26,28,30,32,34,36,38,-1,40,42,44,46,48,50,52,-1,-1,54,56,-1,-1,-1,-1,58,-1,-1,60,-1,-1,-1,62,64,66,68,70,72,74,-1,76,-1,78,-1,-1,-1,-1,-1,-1,-1,-1,-1,-1,-1,-1,-1,-1,-1,-1,-1,-1,-1,-1,-1,-1,-1,-1,-1,-1],"split_conditions":[5.784445E-1,5.158619E0,9.893496E0,2.1972275E0,6.2023487E0,9.6013565E0,4.8785405E0,5.8660173E0,7.4236994E0,3.8361555E-1,4.7849107E0,1.21031165E-1,1.9915689E0,7.253716E0,5.63755E-1,9.944139E-1,4.21357E0,7.48999E0,2.2123551E-1,-6.6514395E-2,5.63755E-1,5.105808E0,6.5845184E0,2.7366638E0,9.4064E0,2.576829E0,3.1036196E0,-7.593167E-2,-1.5391446E-2,4.8766318E-1,3.4208174E0,-2.8905452E-3,3.3193845E-2,-6.2641627E-3,-3.3403017E-2,3.8361555E-1,-2.61447E-2,-1.9013215E-2,2.9314773E0,2.573848E-2,-9.098125E-3,1.0028223E-1,2.0425646E0,8.148252E0,3.630823E0,4.8485875E0,7.619018E0,2.2123551E-1,4.6630974E0,-6.949139E-2,4.2073655E0,1.0707545E-1,6.633107E0,-4.0189507E-3,4.9084183E-3,-8.928025E-3,-2.5442816E-2,4.1145097E-2,1.1565495E-1,1.2062002E-2,-1.4777185E-4,-5.4431856E-3,1.359601E-2,4.760734E-2,-2.2811473E-3,-5.3472627E-2,-1.3309873E-2,2.8084133E-2,-2.1244613E-2,-7.511168E-2,-9.415269E-3,-3.151799E-2,-1.222592E-3,-2.7373699E-3,3.1798683E-2,-2.5009694E-2,2.1289349E-2,-4.1817464E-3,3.784045E-2],"split_indices":[4,7,3,7,7,3,5,3,1,4,5,1,6,0,0,0,0,2,2,0,0,1,3,2,5,4,6,0,0,0,0,0,0,0,0,4,0,0,0,0,0,0,0,5,1,4,2,2,4,0,1,0,6,0,0,0,0,0,0,0,0,0,0,0,0,0,0,0,0,0,0,0,0,0,0,0,0,0,0],"split_type":[0,0,0,0,0,0,0,0,0,0,0,0,0,0,0,0,0,0,0,0,0,0,0,0,0,0,0,0,0,0,0,0,0,0,0,0,0,0,0,0,0,0,0,0,0,0,0,0,0,0,0,0,0,0,0,0,0,0,0,0,0,0,0,0,0,0,0,0,0,0,0,0,0,0,0,0,0,0,0],"sum_hessian":[1E3,4.7E1,9.53E2,2E1,2.7E1,9.43E2,1E1,8E0,1.2E1,9E0,1.8E1,9.12E2,3.1E1,4E0,6E0,5E0,3E0,9E0,3E0,7E0,2E0,5E0,1.3E1,1.1E1,9.01E2,6E0,2.5E1,3E0,1E0,2E0,4E0,1E0,4E0,2E0,1E0,8E0,1E0,1E0,2E0,1E0,1E0,3E0,2E0,7E0,6E0,5E0,6E0,8.43E2,5.8E1,2E0,4E0,4E0,2.1E1,1E0,1E0,2E0,2E0,3E0,5E0,1E0,1E0,1E0,1E0,4E0,3E0,3E0,3E0,3E0,2E0,5E0,1E0,1.8E1,8.25E2,2.9E1,2.9E1,2E0,2E0,1E1,1.1E1],"tree_param":{"num_deleted":"0","num_feature":"8","num_nodes":"79","size_leaf_vector":"1"}},{"base_weights":[-2.7355136E-4,6.862262E-2,-2.0362237E-3,-1.14798844E-1,1.09026656E-1,-5.7257116E-3,3.111465E-2,-4.7987313E-3,-4.0650204E-2,2.465633E-2,1.5905021E-1,1.0435168E-1,-7.1109133E-3,7.0158035E-2,-4.1167956E-2,-3.0879933E-2,7.5815186E-2,9.089154E-2,8.690531E-2,-6.5812087E-3,7.1636215E-2,-1.6665967E-2,6.997562E-3,3.2435212E-2,2.1565256E-1,-9.501032E-2,5.7258368E-2,9.609127E-2,-6.876201E-3,1.02057844E-1,-1.4407755E-3,9.912048E-2,-5.416709E-2,-5.279139E-3,-9.2109784E-2,5.8466498E-2,-9.100536E-3,9.266461E-2,-1.1354531E-2,9.515763E-4,2.3309495E-1,-1.3081123E-1,3.2324053E-2,-3.559348E-2,1.7151777E-1,4.9432577E-3,3.2615557E-2,1.0398004E-2,3.899403E-2,4.222209E-2,-1.0103811E-2,-1.1177793E-2,3.660736E-3,-9.372403E-3,-5.0450534E-2,-5.4077763E-2,2.179681E-2,-1.6242217E-3,-7.559258E-2,4.0130816E-2,-1.1772895E-2,-1.7346852E-2,4.6867736E-2,9.300314E-2,4.0160425E-2,-5.3048007E-2,-1.1905414E-2,7.200563E-3,-4.2875912E-2,1.0928392E-2,5.737504E-2],"categories":[],"categories_nodes":[],"categories_segments":[],"categories_sizes":[],"default_left":[0,0,0,0,0,0,0,0,0,0,0,0,0,0,0,0,0,0,0,0,0,0,0,0,0,0,0,0,0,0,0,0,0,0,0,0,0,0,0,0,0,0,0,0,0,0,0,0,0,0,0,0,0,0,0,0,0,0,0,0,0,0,0,0,0,0,0,0,0,0,0],"id":17,"left_children":[1,3,5,7,9,11,13,-1,-1,15,17,19,21,23,25,-1,27,29,-1,31,-1,33,35,37,39,41,43,45,-1,47,-1,49,-1,51,53,55,57,59,61,-1,63,65,-1,67,69,-1,-1,-1,-1,-1,-1,-1,-1,-1,-1,-1,-1,-1,-1,-1,-1,-1,-1,-1,-1,-1,-1,-1,-1,-1,-1],"loss_changes":[1.21702544E-1,1.9779031E-1,1.1967478E-1,8.059584E-3,8.4708974E-2,1.349239E-1,2.794597E-1,0E0,0E0,6.654987E-2,8.942023E-2,1.6561824E-1,1.1739892E-1,3.44267E-1,1.9092284E-1,0E0,1.6216308E-2,1.1175625E-2,0E0,1.4662363E-1,0E0,4.4536883E-1,2.9218236E-1,1.3819851E-1,4.7440827E-2,1.8104902E-1,1.4402446E-1,4.240405E-3,0E0,1.2431979E-2,0E0,3.237556E-2,0E0,2.531517E-1,3.0955714E-1,2.9763895E-1,2.3948461E-1,1.24534175E-1,2.504358E-1,0E0,5.008459E-2,7.6847255E-2,0E0,5.4599494E-2,9.026989E-3,0E0,0E0,0E0,0E0,0E0,0E0,0E0,0E0,0E0,0E0,0E0,0E0,0E0,0E0,0E0,0E0,0E0,0E0,0E0,0E0,0E0,0E0,0E0,0E0,0E0,0E0],"parents":[2147483647,0,0,1,1,2,2,3,3,4,4,5,5,6,6,9,9,10,10,11,11,12,12,13,13,14,14,16,16,17,17,19,19,21,21,22,22,23,23,24,24,25,25,26,26,27,27,29,29,31,31,33,33,34,34,35,35,36,36,37,37,38,38,40,40,41,41,43,43,44,44],"right_children":[2,4,6,8,10,12,14,-1,-1,16,18,20,22,24,26,-1,28,30,-1,32,-1,34,36,38,40,42,44,46,-1,48,-1,50,-1,52,54,56,58,60,62,-1,64,66,-1,68,70,-1,-1,-1,-1,-1,-1,-1,-1,-1,-1,-1,-1,-1,-1,-1,-1,-1,-1,-1,-1,-1,-1,-1,-1,-1,-1],"split_conditions":[2.709599E-1,7.463141E-2,8.960913E0,4.187933E0,2.1296415E0,1.1031264E-1,6.4964666E0,-4.7987313E-3,-4.0650204E-2,1.5004866E0,2.4817212E-1,1.8802474E0,6.0671506E0,4.811401E0,6.0969744E0,-3.0879933E-2,6.6703687E0,8.699692E0,8.690531E-2,7.223735E0,7.1636215E-2,5.2725515E0,2.2971628E0,9.405373E0,2.2568583E-1,8.955558E0,4.0941205E0,1.0294615E0,-6.876201E-3,4.4590273E0,-1.4407755E-3,7.1735346E-1,-5.416709E-2,3.3930526E0,6.5229163E0,6.325341E-1,9.941394E0,3.549963E0,7.562538E0,9.515763E-4,2.8524435E0,4.9753985E0,3.2324053E-2,2.8350718E0,9.32504E0,4.9432577E-3,3.2615557E-2,1.0398004E-2,3.899403E-2,4.222209E-2,-1.0103811E-2,-1.1177793E-2,3.660736E-3,-9.372403E-3,-5.0450534E-2,-5.4077763E-2,2.179681E-2,-1.6242217E-3,-7.559258E-2,4.0130816E-2,-1.1772895E-2,-1.7346852E-2,4.6867736E-2,9.300314E-2,4.0160425E-2,-5.3048007E-2,-1.1905414E-2,7.200563E-3,-4.2875912E-2,1.0928392E-2,5.737504E-2],"split_indices":[6,6,1,0,1,7,3,0,0,4,6,1,3,3,0,0,4,3,0,2,0,3,4,1,0,5,7,0,0,7,0,1,0,4,2,1,0,3,2,0,4,4,0,7,1,0,0,0,0,0,0,0,0,0,0,0,0,0,0,0,0,0,0,0,0,0,0,0,0,0,0],"split_type":[0,0,0,0,0,0,0,0,0,0,0,0,0,0,0,0,0,0,0,0,0,0,0,0,0,0,0,0,0,0,0,0,0,0,0,0,0,0,0,0,0,0,0,0,0,0,0,0,0,0,0,0,0,0,0,0,0,0,0,0,0,0,0,0,0,0,0,0,0,0,0],"sum_hessian":[1E3,2.4E1,9.76E2,4E0,2E1,8.79E2,9.7E1,1E0,3E0,8E0,1.2E1,1E1,8.69E2,6.3E1,3.4E1,2E0,6E0,9E0,3E0,6E0,4E0,5.18E2,3.51E2,5.1E1,1.2E1,2.2E1,1.2E1,5E0,1E0,8E0,1E0,4E0,2E0,4.51E2,6.7E1,8.3E1,2.68E2,2.1E1,3E1,1E0,1.1E1,1.9E1,3E0,7E0,5E0,1E0,4E0,3E0,5E0,3E0,1E0,1.59E2,2.92E2,3.8E1,2.9E1,4E0,7.9E1,2.65E2,3E0,1.6E1,5E0,2.4E1,6E0,5E0,6E0,1.2E1,7E0,5E0,2E0,1E0,4E0],"tree_param":{"num_deleted":"0","num_feature":"8","num_nodes":"71","size_leaf_vector":"1"}},{"base_weights":[-3.7687456E-5,-1.5622318E-3,8.330616E-2,7.0136427E-3,-1.6125191E-2,1.2699221E-1,-9.890349E-2,-1.4154648E-3,8.871319E-2,-1.6267937E-1,-1.2385379E-2,-3.592532E-2,2.1912226E-1,3.0401794E-3,-1.01608485E-1,1.3255171E-1,-7.323181E-2,1.5222037E-2,-1.9569933E-1,1.762583E-3,-4.1794185E-2,-5.832732E-2,6.6359185E-2,2.5355753E-1,-1.8784583E-2,-2.9524765E-3,7.416625E-2,7.866814E-2,-1.6607115E-1,-1.3816597E-1,1.5465215E-1,-1.9832495E-1,1.0576435E-1,-2.2973841E-1,-1.871642E-2,-5.2087917E-3,2.063264E-1,8.350646E-2,-6.267735E-2,-1.9309545E-2,3.453947E-2,2.7140978E-1,1.3933111E-2,1.4088756E-3,-1.38767725E-2,7.713481E-2,1.6050143E-2,5.2756846E-2,-3.2860376E-2,-5.887293E-2,5.202781E-2,-7.478363E-3,-7.1682036E-2,5.799987E-2,-1.1622821E-2,-8.705091E-2,1.5441859E-2,8.460564E-3,5.2177858E-2,-3.4901794E-2,-9.130733E-2,9.856049E-3,-7.862683E-3,2.9021204E-2,8.751934E-2,-1.822256E-2,5.0312806E-2,1.0462221E-2,-3.149499E-2,8.787287E-2,1.4911723E-2],"categories":[],"categories_nodes":[],"categories_segments":[],"categories_sizes":[],"default_left":[0,0,0,0,0,0,0,0,0,0,0,0,0,0,0,0,0,0,0,0,0,0,0,0,0,0,0,0,0,0,0,0,0,0,0,0,0,0,0,0,0,0,0,0,0,0,0,0,0,0,0,0,0,0,0,0,0,0,0,0,0,0,0,0,0,0,0,0,0,0,0],"id":18,"left_children":[1,3,5,7,9,11,-1,13,15,17,19,21,23,25,27,29,31,-1,33,35,37,-1,39,41,-1,43,45,47,49,51,53,55,57,59,-1,61,63,65,67,-1,-1,69,-1,-1,-1,-1,-1,-1,-1,-1,-1,-1,-1,-1,-1,-1,-1,-1,-1,-1,-1,-1,-1,-1,-1,-1,-1,-1,-1,-1,-1],"loss_changes":[1.2731862E-1,1.2300497E-1,3.6661643E-1,4.2709124E-1,1.9803621E-1,2.6303524E-1,0E0,2.5164586E-1,4.2147386E-1,7.335375E-2,1.4861234E-1,1.2638585E-1,1.2259537E-1,2.3038536E-1,2.9197115E-1,2.9658484E-1,3.120612E-1,0E0,2.1969408E-2,3.4618872E-1,3.0876818E-1,0E0,3.928914E-2,2.436912E-2,0E0,1.654941E-1,1.4503773E-1,1.4729968E-1,2.1841294E-1,3.9689615E-2,3.2915843E-1,1.9847679E-1,2.6815765E-2,1.5361816E-2,0E0,1.8869981E-1,4.6654105E-2,2.1667114E-1,4.1636175E-1,0E0,0E0,2.8340101E-2,0E0,0E0,0E0,0E0,0E0,0E0,0E0,0E0,0E0,0E0,0E0,0E0,0E0,0E0,0E0,0E0,0E0,0E0,0E0,0E0,0E0,0E0,0E0,0E0,0E0,0E0,0E0,0E0,0E0],"parents":[2147483647,0,0,1,1,2,2,3,3,4,4,5,5,7,7,8,8,9,9,10,10,11,11,12,12,13,13,14,14,15,15,16,16,18,18,19,19,20,20,22,22,23,23,25,25,26,26,27,27,28,28,29,29,30,30,31,31,32,32,33,33,35,35,36,36,37,37,38,38,41,41],"right_children":[2,4,6,8,10,12,-1,14,16,18,20,22,24,26,28,30,32,-1,34,36,38,-1,40,42,-1,44,46,48,50,52,54,56,58,60,-1,62,64,66,68,-1,-1,70,-1,-1,-1,-1,-1,-1,-1,-1,-1,-1,-1,-1,-1,-1,-1,-1,-1,-1,-1,-1,-1,-1,-1,-1,-1,-1,-1,-1,-1],"split_conditions":[9.789811E0,6.3641043E0,8.735343E0,5.869365E0,6.4523764E0,4.105987E0,-9.890349E-2,9.656321E0,7.2207093E0,3.095579E-1,6.720595E0,3.975944E0,8.885993E0,9.02895E0,2.4053159E0,2.4697298E-1,5.0705967E0,1.5222037E-2,1.843014E0,6.3755746E0,1.3925407E0,-5.832732E-2,9.866302E0,9.374812E0,-1.8784583E-2,8.469688E0,1.2951492E0,6.1958795E0,9.551152E0,3.341927E0,8.698963E0,8.003565E0,3.5883048E0,4.4257736E0,-1.871642E-2,3.5442495E0,6.9205055E0,4.769001E0,2.569523E0,-1.9309545E-2,3.453947E-2,8.180148E0,1.3933111E-2,1.4088756E-3,-1.38767725E-2,7.713481E-2,1.6050143E-2,5.2756846E-2,-3.2860376E-2,-5.887293E-2,5.202781E-2,-7.478363E-3,-7.1682036E-2,5.799987E-2,-1.1622821E-2,-8.705091E-2,1.5441859E-2,8.460564E-3,5.2177858E-2,-3.4901794E-2,-9.130733E-2,9.856049E-3,-7.862683E-3,2.9021204E-2,8.751934E-2,-1.822256E-2,5.0312806E-2,1.0462221E-2,-3.149499E-2,8.787287E-2,1.4911723E-2],"split_indices":[0,5,4,5,5,5,0,2,3,2,7,2,5,0,5,7,1,0,3,7,6,0,0,1,0,4,7,4,3,0,6,7,6,4,0,2,0,0,0,0,0,6,0,0,0,0,0,0,0,0,0,0,0,0,0,0,0,0,0,0,0,0,0,0,0,0,0,0,0,0,0],